svm_type c_svc
kernel_type rbf
gamma 0.00012207
nr_class 5
total_sv 264
rho 0.757799 0.316311 -0.077629 0.5675 -0.546256 -1.53249 0.453357 -0.632477 0.904079 1.29638
label 0 1 2 3 4
nr_sv 73 69 28 72 22
SV
3.426044746249211 0 3.336321380998764 0.8917984942446288 35:1 46:1 66:1 70:1 74:1 75:10 100:1 340:1 381:2 387:2 439:1 480:1 481:2 606:1 639:1 753:1 786:3 808:1 930:1 981:1 998:1 1016:1 1055:1 1124:1 1153:1 1240:1 1301:1 1313:1 1364:1 1370:1 1395:1 1410:1 1418:2 1424:3 1425:1 1446:1 1497:1 1510:1 1527:2 1533:1 1561:2 1609:2 1647:1 1715:2 1740:1 1799:1 1856:4 1886:1 1932:2 2060:1 2067:1 2074:3 2081:1 2144:1 2198:1 2200:1 2205:1 2217:1 2264:1 2300:1 2313:1 2339:1 2343:1 2381:1 2385:1 2386:1 2393:1 2400:1 2426:1 2443:1 2492:6 2505:2 2538:1 2542:1 2553:2 2559:1 2590:1 2604:1 2613:2 2688:1 2719:1 2741:1 2773:1 2779:1 2839:8 3001:1 3161:1 3195:1 3216:1 3229:1 3282:1 3292:1 3295:1 3303:1 3309:1 3318:1 3329:2 3332:1 3384:1 3387:2 3388:2 3486:1 3506:1 3528:1 3556:1 3577:1 3612:1 3628:1 3678:2 3784:1 3816:1 3868:1 3871:1 3895:1 3927:1 3960:1 3998:4 4046:1 4060:1 4066:3 4109:1 4159:1 4192:1 4196:1 4213:1 4234:1 4316:1 4331:1 4406:3 4411:1 4416:1 4447:1 4490:3 4500:1 4528:1 4545:8 4576:1 4580:1 4581:1 4733:1 4757:2 4799:1 4813:1 4816:1 4829:1 4843:1 4970:2 4978:1 5101:1 5131:1 5140:1 5204:1 5218:2 5231:4 5286:1 5287:1 5301:1 5304:2 5370:1 5417:1 5442:1 5444:1 5489:1 5514:1 5564:1 5572:1 5590:1 5619:1 5633:2 5648:1 5734:2 5763:1 5941:1 5989:1 6034:2 6153:1 6224:1 6246:1 6251:1 6257:1 6300:2 6384:1 6391:1 6409:1 6420:3 6487:1 6502:1 6519:1 6526:1 6607:1 6611:1 6769:1 6780:2 6876:2 6946:1 6947:1 6980:2 6989:1 7066:1 7067:1 7076:1 7088:1 7119:2 7134:1 7139:1 7160:1 7174:1 7299:1 7313:1 7417:1 7485:1 7513:1 7552:1 7560:2 7593:1 7605:1 7607:1 7660:1 7662:1 7676:4 7694:1 7742:1 7751:1 7754:1 7789:1 7796:1 7815:2 7821:4 7844:1 7846:1 7849:1 7869:2 
1.6333877340033 0 2.145567809896816 0 22:1 42:1 73:1 90:1 93:1 126:2 133:1 177:8 202:1 209:1 214:1 239:3 326:1 375:1 387:1 410:1 443:1 457:2 508:1 527:5 549:3 551:2 622:2 702:1 745:1 763:1 790:1 831:1 882:1 886:1 929:1 967:1 989:1 998:1 1010:1 1075:1 1079:1 1080:1 1087:1 1149:3 1163:1 1242:1 1339:1 1364:2 1407:1 1427:2 1448:1 1476:1 1571:1 1574:1 1579:1 1621:1 1633:1 1652:1 1659:1 1757:1 1857:1 1861:1 1912:1 1934:1 2032:1 2048:2 2080:1 2088:1 2097:2 2118:2 2153:1 2160:1 2161:1 2204:1 2205:1 2264:2 2278:1 2365:2 2390:1 2427:1 2443:1 2447:1 2541:2 2576:3 2608:1 2613:1 2680:1 2719:1 2770:1 2775:3 2787:1 2823:1 2862:1 2872:1 2916:1 2938:1 2939:1 2947:1 3065:5 3075:1 3076:1 3114:1 3182:1 3187:1 3279:1 3296:1 3310:1 3342:1 3358:2 3433:1 3451:3 3500:1 3539:1 3556:1 3563:1 3591:1 3603:1 3644:3 3683:1 3731:1 3818:1 3880:1 3884:2 3998:3 4010:1 4022:1 4057:3 4065:1 4070:1 4086:1 4090:1 4120:3 4159:3 4164:7 4165:3 4168:1 4173:1 4181:2 4195:1 4226:1 4301:1 4312:1 4349:1 4439:1 4447:4 4496:1 4545:6 4576:6 4577:4 4661:5 4671:1 4677:1 4752:2 4829:2 4837:1 4849:1 4869:1 5025:1 5063:1 5101:3 5209:1 5218:1 5220:2 5231:1 5278:1 5281:5 5329:1 5339:1 5384:1 5420:2 5433:1 5439:1 5514:1 5515:1 5564:2 5600:1 5624:1 5649:1 5667:9 5692:1 5714:1 5734:1 5755:1 5757:1 5844:1 5873:2 5889:1 5891:1 5918:1 5927:4 5929:1 5958:1 5960:1 6034:7 6080:1 6187:1 6206:1 6234:1 6256:3 6257:1 6281:1 6293:2 6351:1 6371:1 6374:1 6384:1 6389:1 6397:1 6398:1 6448:1 6455:1 6507:1 6526:3 6527:1 6544:2 6558:1 6560:1 6581:1 6612:1 6652:2 6660:2 6694:1 6722:1 6747:1 6869:1 6946:1 7008:1 7074:1 7075:1 7078:1 7081:1 7119:1 7139:2 7190:1 7197:3 7234:1 7280:1 7284:1 7305:1 7309:1 7313:3 7322:1 7404:1 7415:2 7452:1 7481:1 7601:1 7615:1 7616:1 7708:1 7718:2 7728:1 7730:2 7762:1 7803:2 7815:2 7821:2 7868:3 7869:1 7882:3 
6.235788565907632 2.787468919415654 9.699259234337262 3.025172435233033 23:1 39:1 65:1 136:2 137:1 198:2 239:2 246:1 263:1 296:1 303:3 327:1 341:1 347:1 348:1 351:1 381:4 385:3 411:2 448:1 454:3 582:2 651:1 688:1 805:1 841:1 881:1 928:1 931:2 986:1 995:9 996:7 1076:1 1120:2 1246:1 1252:3 1255:3 1345:3 1354:1 1405:4 1426:1 1469:1 1471:1 1571:1 1579:1 1659:1 1682:2 1735:1 1762:1 1832:2 1835:1 1861:1 1962:1 1985:1 2003:2 2021:1 2141:1 2149:1 2183:1 2232:1 2275:1 2296:1 2328:1 2333:1 2389:3 2407:2 2436:1 2451:1 2475:1 2547:3 2590:1 2592:1 2603:1 2613:2 2740:1 2775:1 2862:1 2899:1 2957:1 2973:3 3047:1 3264:2 3393:1 3407:2 3433:1 3455:1 3500:1 3523:1 3536:1 3563:1 3586:1 3588:3 3687:1 3812:1 3816:1 3817:1 3818:1 3875:1 3884:2 3899:2 3925:1 3931:1 3934:1 3937:2 4072:4 4130:1 4150:2 4196:1 4208:2 4241:1 4391:1 4406:3 4426:1 4500:1 4539:1 4574:3 4611:1 4639:1 4659:1 4661:4 4725:1 4728:2 4752:1 4761:1 4787:1 4805:2 4806:2 4818:1 4829:1 4842:1 4949:3 4950:1 5031:1 5184:1 5215:1 5367:2 5404:2 5443:1 5449:1 5462:1 5472:1 5498:1 5515:1 5649:1 5670:2 5727:1 5738:1 5745:1 5787:1 5805:1 5824:1 5844:1 5846:1 5894:1 5918:1 6034:6 6041:2 6120:2 6158:3 6183:1 6184:2 6194:2 6200:1 6246:2 6257:1 6371:1 6374:2 6400:2 6541:9 6542:1 6551:1 6573:1 6660:5 6661:4 6665:10 6682:1 6705:2 6755:1 6939:1 7007:1 7044:2 7059:1 7076:1 7094:1 7119:1 7135:1 7143:1 7184:1 7234:1 7240:1 7280:1 7299:1 7415:5 7455:1 7498:1 7660:2 7672:1 7705:2 7754:1 7760:1 7766:1 7815:1 7869:2 7882:4 
2.977098930720278 0.03247482101770791 0.8190349681421965 0.4130712243159191 35:1 38:1 73:1 77:2 82:1 168:1 177:1 214:1 228:1 266:1 269:2 326:2 377:1 381:1 436:1 444:2 508:4 513:1 518:1 532:1 564:1 627:1 638:1 646:1 719:1 729:1 740:1 744:1 769:1 808:1 858:1 869:1 901:3 925:1 989:1 998:1 1010:1 1096:1 1123:1 1124:1 1162:1 1236:2 1264:1 1322:1 1379:2 1410:1 1570:1 1601:1 1693:3 1722:1 1724:1 1725:1 1749:1 1787:1 1882:1 1886:1 1891:1 1964:2 1997:1 2014:1 2019:1 2048:1 2125:1 2181:1 2191:1 2220:1 2264:1 2374:1 2410:1 2427:1 2525:2 2526:1 2543:2 2604:1 2613:2 2696:1 2722:1 2816:1 2830:1 2947:2 2968:3 2979:1 2980:1 2991:2 3009:1 3016:1 3045:1 3101:1 3120:1 3125:1 3182:3 3183:1 3201:2 3242:1 3263:1 3275:2 3285:6 3323:1 3375:1 3460:1 3491:1 3534:1 3539:3 3550:1 3572:1 3638:10 3675:1 3678:1 3680:1 3704:1 3773:1 3791:1 3800:1 3818:1 3849:3 3861:1 3862:1 3884:1 3903:1 3925:1 3934:1 3951:1 3955:1 3983:2 3998:3 4010:1 4023:1 4031:1 4066:1 4086:11 4138:1 4148:1 4159:1 4172:1 4182:1 4215:1 4253:1 4301:1 4323:9 4374:1 4386:2 4411:1 4412:1 4421:1 4528:1 4534:1 4545:18 4576:3 4577:4 4611:1 4643:2 4645:1 4659:1 4671:3 4689:1 4747:1 4751:1 4817:1 4829:1 4879:2 4882:2 5015:1 5025:3 5032:1 5115:2 5141:1 5218:3 5221:1 5230:1 5237:1 5329:1 5337:1 5350:1 5370:1 5372:1 5384:1 5632:1 5648:2 5667:13 5678:5 5734:1 5750:2 5922:1 5932:1 5940:1 6034:3 6055:1 6092:2 6093:2 6111:1 6122:1 6131:1 6281:1 6323:1 6384:1 6389:2 6520:1 6524:3 6543:2 6544:2 6603:1 6607:1 6656:1 6669:3 6684:1 6690:1 6694:1 6697:1 6770:1 6772:1 6876:2 6883:1 6897:1 6947:1 7019:1 7029:1 7044:1 7068:1 7069:2 7081:2 7094:1 7119:2 7143:2 7152:1 7179:2 7260:1 7273:2 7309:1 7313:2 7413:1 7417:1 7580:1 7639:1 7649:1 7659:1 7687:1 7724:1 7748:1 7762:2 7768:3 7773:1 7815:3 7869:4 
2.065988253147328 2.061853262349234 0.9577419681566413 2.228436913690077 17:1 38:1 73:1 82:2 99:2 153:2 207:1 233:1 246:1 316:1 327:1 375:3 400:2 449:2 492:1 508:1 526:1 590:2 688:1 694:1 702:3 724:1 750:1 778:1 842:1 872:1 875:1 884:1 921:4 931:2 939:1 964:1 989:1 1010:3 1064:5 1109:1 1198:1 1244:1 1274:1 1355:1 1369:1 1395:1 1396:2 1400:1 1401:1 1473:3 1496:1 1511:5 1539:2 1578:1 1600:1 1617:1 1693:1 1750:1 1809:3 1856:1 1857:1 1879:1 1880:5 1883:1 1907:2 1912:2 1982:1 2033:1 2036:1 2100:1 2150:1 2181:1 2207:1 2265:1 2285:1 2298:2 2385:1 2386:3 2387:1 2396:1 2404:1 2429:2 2432:1 2433:3 2464:1 2469:2 2478:1 2507:2 2508:1 2553:2 2579:1 2602:1 2605:1 2621:1 2675:1 2806:2 2814:1 2839:17 2872:2 2900:1 2930:1 2938:3 3001:1 3009:2 3114:2 3134:1 3184:1 3253:2 3263:2 3279:1 3358:1 3387:2 3407:2 3429:3 3433:1 3544:1 3553:2 3577:1 3595:2 3596:1 3614:1 3786:1 3831:1 3925:1 3942:1 3998:5 4004:2 4010:2 4025:1 4031:1 4061:1 4066:2 4123:3 4130:1 4148:1 4158:1 4159:3 4182:2 4204:1 4208:1 4251:1 4282:3 4291:1 4324:3 4386:2 4411:1 4439:1 4453:5 4526:1 4529:1 4549:3 4597:1 4653:1 4659:1 4661:1 4721:1 4752:4 4775:1 4789:1 4803:1 4811:1 4829:2 4837:1 4843:1 4869:1 4918:1 4960:1 5101:2 5116:2 5170:4 5218:7 5231:1 5235:2 5248:6 5266:1 5280:1 5345:1 5378:1 5528:1 5606:1 5619:3 5629:1 5684:1 5705:1 5750:1 5763:1 5798:1 5814:1 5894:1 6033:2 6149:5 6187:1 6192:1 6194:1 6227:1 6234:1 6262:1 6319:1 6330:1 6376:2 6381:1 6402:1 6405:2 6458:1 6485:1 6519:1 6528:6 6540:1 6544:1 6548:1 6557:1 6656:1 6691:2 6709:1 6804:1 6844:1 6922:1 6986:1 6989:2 7001:2 7066:1 7081:1 7091:1 7119:2 7174:1 7184:1 7189:1 7234:1 7240:1 7249:1 7280:3 7309:1 7481:1 7509:1 7516:1 7606:13 7713:1 7720:2 7757:2 7802:1 7821:1 7867:1 7877:1 
9.527533287790478 11.04627968137147 24.15675485413791 1.24424358531395 55:1 58:1 77:1 196:1 213:1 233:1 278:1 338:1 375:1 381:2 387:3 403:1 408:1 989:1 1154:1 1340:1 1345:1 1346:1 1370:2 1424:1 1488:2 1730:1 1797:1 1832:1 1861:1 2074:1 2081:1 2181:1 2234:1 2267:1 2272:1 2385:1 2405:1 2721:1 2806:1 2917:1 3226:1 3358:2 3387:1 3433:1 3536:1 3796:1 3925:1 4032:1 4130:1 4172:1 4182:2 4447:1 4479:1 4541:1 4545:1 4639:1 4659:1 4752:1 4775:1 4829:1 4970:3 5115:2 5131:1 5172:3 5181:1 5183:1 5184:1 5266:1 5276:1 5326:1 5421:1 5433:1 5474:1 5738:1 5790:1 5865:1 6264:1 6351:1 6360:1 6391:1 6543:1 6660:1 6694:1 6705:1 6712:1 6749:1 6983:2 7040:1 7498:1 7506:1 7603:1 7630:1 7720:1 7813:1 7815:2 7821:2 7830:1 7849:2 
0 0 7.997812891013898 0 77:1 105:1 133:1 246:1 508:1 858:1 876:1 885:1 998:1 1010:1 1153:1 1306:1 1366:1 1997:1 2150:1 2264:1 2298:1 2490:1 2638:1 2682:1 2747:2 2779:1 2826:1 2862:1 2914:2 2926:3 2983:1 3126:1 3195:1 3226:1 3279:2 3593:1 3614:1 3884:1 4031:2 4159:1 4478:1 4496:1 4539:2 4653:1 4661:4 4671:2 4686:1 4752:1 4865:1 5220:1 5287:1 5357:1 5370:1 5420:1 5576:2 5633:1 5649:1 6034:1 6111:1 6123:1 6152:1 6170:5 6246:1 6257:1 6283:1 6333:2 6445:1 6652:1 6661:1 7081:2 7119:1 7288:1 7568:1 7720:1 7846:1 
2.421007175853688 0 2.826225692356992 0.4791689348669856 37:1 95:1 114:2 132:1 177:3 214:2 239:1 265:1 278:1 290:1 298:1 350:1 381:1 387:1 400:1 444:1 447:1 457:2 458:1 476:1 483:1 508:1 551:5 559:1 582:1 590:1 622:1 630:2 636:1 646:1 702:1 703:1 719:1 724:1 729:2 773:1 794:1 818:1 899:1 956:1 989:2 1172:3 1336:2 1413:1 1418:1 1427:2 1463:1 1522:1 1590:1 1609:1 1611:1 1640:1 1659:1 1674:1 1693:2 1694:1 1729:1 1735:1 1856:1 1876:1 1879:1 1912:1 1917:1 1932:1 1962:1 2018:1 2142:1 2191:3 2205:1 2274:1 2296:1 2322:1 2374:3 2377:2 2378:1 2387:1 2396:1 2429:1 2433:1 2438:1 2455:1 2469:1 2498:1 2501:3 2534:2 2543:1 2579:1 2590:1 2613:2 2621:1 2652:1 2757:1 2786:1 2787:4 2806:1 2826:1 2862:1 2894:4 2900:3 2906:1 2923:3 2938:2 2957:2 2968:2 3001:2 3022:1 3045:3 3093:1 3094:1 3171:3 3195:1 3216:1 3226:3 3247:1 3253:1 3263:1 3279:1 3288:3 3301:1 3332:1 3358:1 3387:2 3510:1 3512:1 3528:1 3536:1 3565:1 3612:1 3724:1 3796:3 3835:10 3860:1 3886:1 3925:1 3992:1 3994:2 3998:2 4023:3 4031:2 4043:2 4060:1 4066:1 4080:2 4086:1 4118:1 4120:2 4123:1 4158:1 4159:1 4160:1 4172:1 4173:1 4189:1 4243:1 4258:1 4279:1 4311:1 4316:1 4320:1 4365:1 4386:2 4447:1 4458:1 4501:1 4539:1 4545:5 4574:6 4576:3 4647:1 4661:4 4686:3 4708:1 4740:1 4761:1 4803:1 4829:5 4841:1 4867:1 4869:1 4888:2 4907:1 5002:1 5025:1 5026:2 5028:1 5034:1 5101:2 5115:3 5131:2 5171:2 5203:1 5215:1 5218:2 5225:1 5299:1 5304:1 5326:1 5361:1 5367:1 5384:1 5430:1 5492:1 5494:1 5514:1 5515:1 5528:1 5629:1 5659:1 5781:1 5825:1 5842:1 5843:3 5844:1 5854:2 5866:2 5879:1 5894:1 5925:2 5927:1 6000:1 6006:1 6034:12 6041:1 6111:1 6123:2 6139:1 6149:1 6166:1 6192:2 6194:2 6206:1 6246:1 6264:2 6311:1 6314:1 6319:1 6332:1 6333:4 6376:2 6396:1 6400:2 6462:1 6502:2 6540:1 6544:1 6557:2 6588:2 6602:1 6607:2 6637:1 6656:1 6691:1 6708:1 6782:1 6805:1 6890:1 6895:1 6900:1 6965:1 6978:1 6989:1 7040:1 7044:1 7066:2 7067:2 7101:6 7119:1 7157:1 7232:1 7288:2 7292:1 7299:2 7351:1 7485:1 7498:1 7516:1 7560:2 7605:2 7619:1 7639:1 7642:1 7659:1 7700:2 7706:4 7713:1 7724:1 7748:1 7751:2 7792:1 7846:1 7882:3 7903:1 
1.025921167734814 3.042895527949771 0.2026208457567269 2.572780959148129 65:2 214:2 239:1 246:1 290:1 319:1 387:2 402:1 438:1 445:1 536:1 639:1 655:1 725:1 761:1 806:1 841:1 1010:1 1043:1 1153:5 1218:1 1301:1 1339:1 1344:1 1396:1 1511:1 1574:1 1587:1 1609:1 1706:2 1707:1 1708:1 1731:1 1890:1 1932:1 1933:1 1990:1 2012:1 2026:2 2031:1 2033:1 2074:1 2086:1 2124:1 2140:1 2181:2 2239:2 2264:2 2365:1 2374:1 2386:1 2389:1 2422:1 2433:1 2441:1 2490:1 2588:1 2606:3 2608:1 2613:3 2654:1 2704:1 2722:1 2793:1 2820:1 2859:1 2938:1 3078:1 3125:2 3186:1 3201:1 3245:1 3291:1 3310:1 3329:1 3360:1 3407:2 3412:1 3553:1 3570:1 3614:1 3705:1 3759:1 3884:3 3955:1 3960:1 3964:1 3983:2 3994:2 3998:2 4032:1 4061:1 4066:2 4172:1 4279:1 4386:2 4430:1 4474:1 4529:1 4539:2 4541:2 4545:2 4549:3 4597:1 4603:1 4628:1 4630:1 4661:1 4721:1 4737:2 4740:2 4807:1 4818:1 4829:1 4836:1 4956:2 4965:1 4966:1 5006:1 5034:1 5042:1 5101:1 5115:3 5176:1 5179:1 5215:1 5218:4 5242:2 5296:1 5299:1 5315:1 5357:1 5421:1 5430:1 5488:1 5498:1 5588:1 5619:1 5633:1 5667:1 5692:1 5714:1 5734:1 5750:1 5792:1 5800:1 5851:1 5908:1 5946:1 5958:1 6127:1 6139:1 6160:1 6173:1 6224:1 6283:1 6365:1 6376:1 6402:1 6432:1 6439:1 6446:4 6449:1 6471:1 6518:1 6520:1 6561:1 6578:2 6597:1 6635:1 6656:1 6694:1 6863:1 7008:1 7021:1 7049:3 7074:2 7081:1 7139:1 7152:1 7174:3 7264:1 7278:1 7288:1 7299:2 7311:1 7313:2 7399:1 7509:1 7543:1 7559:1 7605:2 7659:1 7766:1 7801:1 7802:2 7815:2 7831:1 7837:1 7882:1 7885:1 
1.522304159173818 1.093453521555687 5.22493766341691 0 63:1 64:1 65:1 98:1 132:1 204:1 214:1 224:1 313:1 457:1 472:1 508:1 667:1 822:1 998:1 1001:1 1064:1 1079:3 1082:1 1121:1 1162:1 1202:1 1204:1 1218:2 1238:1 1274:2 1364:1 1395:2 1410:1 1426:1 1557:1 1593:1 1612:1 1659:1 1683:1 1707:1 1708:3 1740:1 1748:1 1770:1 1848:1 1857:1 1982:2 2231:1 2264:1 2321:2 2345:1 2374:2 2418:1 2424:1 2446:1 2447:1 2450:1 2469:1 2480:1 2488:1 2496:3 2498:2 2500:1 2505:1 2516:1 2607:1 2620:1 2647:1 2688:1 2705:1 2711:1 2899:1 2930:1 3033:1 3078:1 3093:1 3094:1 3157:1 3171:2 3186:1 3201:1 3226:1 3229:1 3238:1 3263:1 3292:1 3329:1 3394:1 3483:1 3516:1 3552:2 3562:1 3563:1 3564:1 3619:3 3651:1 3731:2 3830:1 3864:1 3927:1 3932:4 3935:1 3955:1 3964:1 3998:2 4006:3 4019:1 4032:1 4066:1 4080:1 4086:1 4100:1 4120:10 4159:1 4176:1 4182:1 4249:1 4410:1 4430:1 4485:1 4545:1 4549:1 4576:1 4637:1 4705:1 4799:1 5029:1 5078:1 5101:2 5115:2 5184:1 5281:2 5299:2 5303:1 5366:1 5404:1 5444:1 5492:1 5726:1 5816:1 5824:1 5844:1 5889:1 5927:1 5941:1 5942:2 6056:1 6091:1 6139:1 6147:1 6176:1 6190:1 6192:4 6204:1 6246:1 6257:1 6262:1 6266:1 6267:1 6302:4 6333:1 6342:1 6351:1 6371:1 6434:1 6462:1 6471:1 6520:2 6526:1 6612:1 6635:3 6646:1 6652:1 6656:1 6660:1 6685:1 6694:2 6700:1 6722:1 6744:1 6755:1 6763:1 6780:1 6806:1 6815:1 6938:1 6988:2 7054:2 7094:2 7112:1 7231:1 7269:3 7299:1 7311:1 7377:1 7417:1 7481:1 7616:1 7659:3 7742:1 7766:2 7793:1 7815:1 
0 0.1930867039753741 0 0 164:1 214:1 280:2 377:1 381:1 414:1 508:1 539:1 624:1 639:1 646:1 662:1 688:3 706:1 732:1 775:3 808:1 872:1 879:1 905:1 989:1 1080:1 1089:1 1107:1 1146:1 1218:2 1236:1 1256:1 1280:1 1294:1 1364:1 1397:1 1547:1 1561:2 1663:1 1672:1 1688:1 1707:5 1708:4 1833:1 1855:1 1856:1 2000:1 2107:2 2374:1 2387:1 2413:1 2433:1 2443:1 2448:1 2469:1 2472:1 2490:1 2498:1 2541:2 2554:1 2600:1 2654:1 2691:3 2826:1 2900:1 2938:1 2957:1 3114:1 3186:1 3190:2 3226:1 3433:1 3528:1 3635:1 3668:1 3731:1 3806:1 3925:1 3994:1 3998:3 4032:1 4120:11 4141:1 4148:3 4206:1 4333:1 4426:2 4458:1 4474:1 4496:1 4549:4 4661:1 4681:1 4686:1 4740:1 4775:1 4783:1 4803:1 4837:1 4961:1 4972:1 4993:1 5025:2 5035:2 5042:1 5113:1 5115:3 5134:1 5184:1 5215:2 5253:2 5299:1 5340:1 5430:1 5433:1 5619:1 5624:1 5678:1 5719:1 5733:1 5808:1 5908:1 6071:7 6108:1 6171:2 6181:1 6283:1 6304:1 6326:1 6351:1 6357:1 6455:1 6519:1 6540:1 6544:1 6557:2 6580:1 6626:1 6635:1 6646:1 6649:1 6653:2 6682:1 6694:1 6775:1 6799:1 6930:1 6939:4 6946:2 6956:1 7094:1 7119:1 7137:1 7160:1 7383:1 7414:1 7459:1 7481:2 7485:1 7639:2 7640:1 7642:1 7648:1 7649:1 7696:1 7720:1 7751:1 7765:1 7802:3 7815:2 7869:1 7882:1 7885:1 7917:5 
0.4169411257514866 1.697809191820748 0 1.944372894624264 25:1 39:2 46:1 125:1 207:2 213:1 214:1 238:2 263:1 267:1 278:1 285:1 290:2 312:1 313:1 314:2 323:1 326:1 350:1 359:1 368:2 370:1 375:1 381:7 387:1 397:1 417:1 483:1 508:1 578:1 624:2 693:1 729:1 797:1 868:1 928:1 989:2 1010:3 1047:1 1064:1 1076:1 1083:1 1095:1 1104:1 1120:1 1124:1 1146:1 1172:1 1208:1 1263:1 1344:1 1355:1 1370:1 1394:1 1410:1 1422:1 1469:1 1485:1 1491:1 1493:1 1533:1 1561:1 1587:4 1596:1 1637:1 1638:1 1665:1 1671:1 1675:1 1693:1 1721:1 1803:1 1809:1 1832:1 1834:1 1853:1 1856:1 1868:1 1880:3 1919:2 1982:2 2002:1 2033:1 2057:1 2074:1 2120:1 2149:1 2174:2 2175:1 2182:1 2187:1 2188:1 2195:1 2263:1 2265:1 2285:1 2324:1 2339:1 2349:1 2366:1 2381:4 2385:1 2396:1 2400:1 2406:1 2418:2 2426:1 2443:1 2464:1 2498:1 2505:1 2534:1 2553:2 2590:1 2593:1 2603:2 2608:1 2613:4 2645:1 2654:1 2705:1 2719:2 2740:2 2775:1 2793:1 2812:1 2836:1 2862:1 2900:1 2905:1 2921:1 2938:4 2942:1 2945:1 2947:1 2957:2 2968:1 2976:1 2980:1 3014:1 3068:11 3114:4 3116:1 3125:1 3134:1 3171:2 3195:1 3213:1 3230:1 3253:1 3264:1 3310:1 3313:1 3387:2 3388:1 3406:1 3429:2 3471:1 3486:3 3530:1 3539:1 3550:1 3552:1 3556:1 3562:1 3582:1 3598:1 3628:1 3644:1 3659:1 3796:1 3810:1 3816:2 3849:1 3871:1 3884:2 3900:1 3911:1 3927:1 3944:1 3947:1 3955:1 3964:1 3998:1 4016:1 4022:2 4031:4 4040:1 4046:1 4066:1 4079:1 4080:1 4130:1 4148:2 4150:1 4158:1 4159:1 4172:3 4192:2 4258:1 4284:1 4335:1 4349:5 4359:2 4386:1 4406:1 4437:1 4458:2 4496:1 4549:2 4574:9 4576:1 4579:1 4597:1 4605:1 4621:1 4630:1 4637:3 4659:2 4661:3 4681:1 4715:1 4733:1 4737:1 4749:1 4752:2 4775:4 4818:1 4829:5 4865:1 4960:1 4965:3 4970:3 4999:1 5101:3 5116:1 5137:1 5173:1 5206:1 5215:2 5220:3 5253:1 5296:2 5302:1 5322:1 5373:1 5378:1 5384:1 5397:2 5407:1 5421:1 5426:1 5427:1 5515:1 5541:2 5547:1 5552:1 5635:1 5649:1 5752:1 5754:1 5771:1 5790:2 5794:1 5805:1 5820:1 5821:1 5878:1 5888:1 5912:1 5948:1 5969:1 6082:1 6120:1 6149:1 6158:2 6160:1 6184:1 6186:1 6187:3 6192:1 6194:1 6203:1 6262:1 6327:1 6330:2 6331:2 6369:1 6400:1 6494:1 6503:1 6505:1 6548:1 6553:1 6572:2 6646:2 6653:1 6710:1 6733:1 6742:1 6743:1 6857:1 6861:2 6947:2 6978:1 7040:1 7044:1 7066:1 7067:3 7075:1 7119:4 7124:1 7158:1 7224:1 7296:1 7313:2 7326:1 7373:1 7417:1 7421:1 7428:1 7453:2 7481:5 7483:2 7500:1 7541:1 7567:1 7568:1 7604:1 7639:2 7649:1 7659:5 7672:1 7675:1 7676:1 7681:1 7700:1 7712:1 7717:1 7720:1 7728:1 7730:1 7751:2 7754:1 7766:6 7803:1 7804:2 7815:1 7821:3 7825:1 7857:1 7869:3 
1.160856610481422 0 2.680032182236598 0 37:1 47:1 70:1 82:1 102:1 191:1 214:2 280:1 333:1 341:1 384:1 438:1 536:1 575:1 637:1 671:1 831:1 903:1 905:7 1076:1 1079:1 1087:1 1120:1 1138:1 1208:1 1260:1 1264:1 1276:1 1344:1 1355:1 1412:2 1429:1 1469:1 1574:1 1675:1 1706:1 1707:1 1730:2 1747:2 1801:2 1813:1 1821:1 1868:1 1890:1 1959:1 1998:1 2074:1 2183:1 2251:1 2274:1 2328:2 2352:1 2374:2 2400:1 2413:1 2590:1 2600:1 2635:1 2666:1 2719:1 2779:1 2890:1 2916:2 3042:1 3104:3 3145:1 3388:1 3391:1 3412:1 3433:2 3567:1 3595:1 3718:1 3773:1 3847:2 3874:1 3886:3 4004:1 4024:2 4031:1 4032:1 4130:2 4159:1 4377:1 4386:1 4437:1 4496:1 4529:1 4540:1 4543:1 4545:7 4572:1 4576:2 4577:1 4661:1 4671:1 4737:1 4743:1 4756:1 4793:1 4818:1 4829:1 4839:1 4841:1 4880:1 4960:1 4972:1 5115:2 5127:1 5178:1 5184:2 5218:2 5240:1 5253:1 5326:1 5340:1 5407:1 5430:1 5469:1 5528:1 5612:2 5624:2 5629:1 5649:2 5655:4 5763:1 5776:2 5780:1 5873:1 5994:1 6123:1 6170:1 6288:1 6358:1 6406:1 6525:3 6560:1 6561:1 6647:1 6670:1 6733:1 6735:2 6755:1 6782:1 6822:2 6988:1 7026:1 7044:1 7081:1 7119:1 7174:1 7288:1 7313:1 7448:1 7485:1 7505:1 7571:1 7610:1 7639:1 7679:1 7715:1 7781:2 7815:6 7831:1 7885:1 
1.46876656139879 0 0.1662457221410189 0.4507172469188447 47:1 130:1 214:2 224:3 246:1 290:2 291:1 382:1 400:1 445:1 450:1 513:1 536:1 551:1 627:1 639:1 646:1 736:1 763:1 766:1 773:1 808:1 813:3 875:1 903:1 929:1 953:5 989:1 998:1 1010:1 1043:1 1048:2 1118:1 1120:1 1138:1 1146:2 1208:1 1215:1 1221:1 1234:1 1264:9 1281:1 1401:1 1406:1 1427:1 1428:2 1458:1 1468:1 1710:1 1731:1 1757:1 1769:1 1799:1 1901:1 1907:3 1932:1 2033:2 2049:1 2071:1 2107:1 2207:1 2222:1 2264:1 2300:1 2322:1 2350:1 2374:1 2400:1 2433:1 2443:1 2543:1 2553:2 2560:1 2576:4 2586:1 2607:1 2656:1 2674:2 2682:1 2719:1 2722:1 2764:1 2772:1 2872:1 2897:11 2900:1 2910:4 2938:2 3047:1 3101:1 3114:1 3134:1 3183:1 3301:1 3358:1 3383:1 3407:4 3417:4 3433:3 3550:1 3556:3 3563:2 3567:1 3596:1 3657:14 3688:1 3731:1 3759:1 3778:1 3812:2 3816:2 3849:2 3885:1 3886:2 3923:1 3934:1 3958:1 3988:1 3998:4 4010:1 4023:1 4024:1 4086:2 4148:2 4150:1 4159:1 4181:1 4196:1 4234:1 4243:1 4330:1 4356:1 4374:1 4386:2 4411:1 4425:1 4543:2 4545:18 4576:6 4577:2 4625:1 4671:1 4781:1 4803:1 4818:2 4822:1 4829:3 4869:1 4875:1 5025:4 5053:1 5115:2 5178:5 5179:2 5218:7 5231:2 5253:1 5329:1 5357:1 5407:1 5430:3 5547:1 5552:1 5649:1 5667:3 5718:1 5734:1 5780:1 5820:1 5824:1 5922:1 5972:1 5980:1 6009:1 6034:6 6086:1 6111:1 6122:1 6123:1 6125:1 6139:1 6187:1 6192:1 6194:1 6257:1 6259:1 6264:1 6371:2 6508:1 6518:1 6519:2 6520:1 6525:1 6540:1 6544:1 6555:1 6566:1 6569:1 6652:1 6656:2 6694:3 6734:1 6738:1 6768:1 6769:2 6780:3 6806:1 6868:1 6939:2 6940:1 6943:1 7044:1 7066:2 7067:2 7072:1 7074:2 7119:4 7143:1 7153:1 7190:1 7313:1 7412:1 7417:1 7448:1 7507:1 7516:1 7538:1 7604:1 7639:1 7659:1 7702:1 7708:3 7734:2 7742:1 7763:1 7766:2 7792:1 7796:1 7803:2 7804:1 7815:6 7847:2 7849:1 7869:4 7877:2 7888:1 
1.762322811488605 0 0 0 65:1 137:1 139:1 239:2 290:1 292:1 332:1 350:1 387:1 457:3 535:1 623:1 638:1 639:1 659:1 674:1 702:2 716:1 728:1 872:1 876:1 884:1 952:1 956:1 1010:1 1073:1 1153:1 1215:1 1218:1 1283:2 1297:1 1364:1 1366:1 1395:2 1407:1 1424:1 1583:1 1609:1 1663:1 1679:2 1707:4 1715:1 1726:1 1771:1 1773:1 1932:1 1982:1 1988:1 2026:1 2028:1 2034:1 2080:2 2260:1 2285:1 2345:1 2374:1 2408:1 2429:1 2464:1 2473:1 2484:1 2490:1 2497:1 2541:3 2561:2 2596:3 2603:1 2607:1 2613:1 2621:1 2674:1 2680:1 2682:1 2722:1 2778:1 2811:1 2900:1 2916:1 2938:1 2982:1 2985:1 3016:1 3101:1 3245:1 3303:3 3310:1 3388:2 3412:1 3433:1 3460:1 3509:1 3518:3 3534:1 3556:1 3585:1 3604:1 3616:1 3646:1 3657:1 3685:3 3687:1 3731:4 3796:1 3856:2 3884:1 3931:1 3949:1 3955:1 3960:3 3983:1 3998:1 4010:1 4032:1 4123:1 4151:1 4159:1 4163:3 4172:2 4182:1 4221:1 4236:1 4242:1 4316:1 4324:1 4333:1 4365:1 4458:1 4545:11 4549:1 4576:6 4661:1 4748:1 4781:1 4794:2 4799:1 4811:1 4818:1 4829:3 4844:1 4851:1 4956:1 5025:1 5063:2 5101:1 5115:1 5175:1 5184:3 5218:2 5240:1 5259:1 5326:1 5357:1 5440:1 5461:1 5528:1 5751:2 5755:1 5780:2 5844:1 5922:1 6070:1 6170:3 6192:2 6257:2 6264:1 6267:2 6281:1 6307:3 6330:1 6346:1 6384:1 6391:1 6445:1 6462:1 6464:1 6522:1 6531:2 6635:1 6685:1 6694:1 6712:1 6744:1 6780:1 6801:1 6831:3 6842:1 6863:1 6939:1 6942:1 6947:1 6973:14 7002:2 7049:1 7067:2 7073:1 7081:2 7094:1 7110:1 7132:2 7186:1 7231:2 7299:1 7313:1 7475:1 7567:1 7611:1 7639:1 7696:2 7708:1 7709:2 7784:1 7787:1 7789:1 7801:1 7840:1 7869:2 7877:1 7882:2 
0 0 0 0.6716444729866927 9:1 133:2 139:1 207:2 209:1 214:2 239:1 375:1 376:1 381:1 387:2 410:1 568:1 575:1 624:1 685:1 692:1 694:1 724:2 729:1 775:1 875:1 905:2 910:1 959:1 989:2 1010:2 1026:1 1028:1 1037:2 1118:1 1222:1 1264:1 1297:1 1301:1 1344:3 1364:1 1372:1 1407:2 1413:1 1448:1 1461:2 1571:1 1665:1 1715:3 1740:1 1807:1 1832:1 1868:1 1907:1 1930:1 1989:1 2026:1 2074:1 2127:1 2142:2 2161:1 2172:1 2218:1 2219:1 2239:2 2322:1 2366:2 2374:2 2395:1 2400:2 2417:1 2418:2 2462:1 2469:2 2553:1 2603:1 2604:1 2645:2 2654:1 2719:1 2734:1 2740:1 2744:1 2785:1 2809:1 2836:3 2879:1 2900:1 2916:1 2932:1 2986:1 3003:1 3008:1 3009:1 3012:1 3094:1 3114:1 3120:1 3134:1 3217:1 3253:2 3263:1 3268:1 3303:2 3306:1 3324:1 3408:1 3433:2 3441:1 3510:1 3552:1 3560:1 3576:1 3685:1 3687:1 3725:1 3731:1 3759:1 3771:7 3812:1 3879:1 3881:1 3885:1 3886:1 3919:1 3988:1 3994:1 3995:1 3998:2 4000:1 4041:1 4057:1 4060:1 4066:1 4070:1 4142:1 4159:2 4237:1 4349:5 4377:1 4411:1 4442:1 4458:1 4460:1 4487:1 4549:1 4574:3 4630:1 4631:1 4637:1 4641:1 4659:1 4661:1 4671:1 4688:1 4724:1 4737:1 4811:2 4829:2 4841:1 4926:1 4970:12 4971:1 4978:2 5107:1 5119:1 5122:1 5183:3 5215:1 5218:1 5253:1 5296:11 5299:1 5303:1 5350:1 5397:1 5417:1 5487:1 5528:1 5549:1 5629:1 5631:2 5678:2 5692:1 5710:1 5752:13 5775:1 5894:1 5972:1 6173:2 6203:1 6204:8 6231:1 6264:1 6311:1 6330:1 6333:1 6351:3 6376:2 6384:1 6414:1 6456:1 6468:1 6518:1 6597:1 6603:1 6614:1 6656:1 6660:1 6694:2 6769:1 6770:1 6780:2 6787:1 6793:1 6842:1 6863:2 6876:1 7012:1 7043:1 7067:1 7081:1 7119:2 7152:1 7172:1 7174:1 7179:1 7184:1 7202:1 7224:1 7280:1 7299:1 7313:1 7322:2 7371:1 7384:1 7439:1 7505:1 7516:1 7567:1 7568:1 7601:2 7603:1 7639:3 7654:1 7696:1 7708:1 7748:3 7754:2 7766:2 7804:1 7813:1 7815:4 7869:4 7877:1 7882:1 
6.393895230217647 0.2213223541723427 4.265255862548841 0.2708083476810467 56:1 74:1 77:1 139:1 214:1 238:1 246:2 311:1 313:1 324:1 375:1 445:1 457:1 495:1 592:1 597:1 622:1 639:1 809:1 848:1 854:1 929:1 931:1 974:1 989:1 1010:3 1022:5 1048:1 1064:2 1103:2 1105:1 1107:1 1146:1 1153:3 1155:1 1237:1 1247:1 1355:1 1364:1 1379:1 1407:1 1417:1 1570:1 1587:1 1611:1 1612:2 1625:3 1659:1 1693:1 1726:1 1730:1 1832:1 1868:2 1871:1 1879:1 1890:2 1901:1 2007:1 2070:3 2074:1 2076:1 2088:1 2089:1 2140:1 2141:1 2149:1 2207:1 2289:1 2321:1 2345:1 2381:2 2383:1 2389:1 2394:1 2413:2 2429:1 2464:1 2497:1 2498:1 2608:1 2613:1 2654:1 2722:2 2804:1 2827:1 2841:2 2847:1 2900:1 2917:1 2948:1 3036:1 3045:1 3047:1 3067:1 3068:1 3078:1 3117:1 3142:3 3170:1 3216:1 3301:1 3303:1 3407:1 3412:1 3486:1 3508:1 3548:1 3678:1 3731:2 3759:1 3816:1 3861:1 3870:1 3923:1 3978:1 3988:1 3998:4 4060:1 4065:1 4086:1 4119:1 4130:1 4158:1 4177:1 4202:1 4316:2 4411:1 4412:1 4447:1 4474:1 4479:1 4503:1 4539:1 4545:9 4549:1 4603:1 4639:1 4642:3 4653:4 4661:2 4669:1 4671:1 4703:1 4749:2 4752:1 4756:1 4761:1 4766:3 4781:1 4805:2 4818:1 4841:1 4875:1 4968:1 5014:1 5032:1 5042:1 5060:1 5081:1 5134:1 5172:1 5204:1 5218:2 5240:1 5264:6 5287:1 5388:8 5415:1 5420:1 5421:1 5498:1 5548:1 5599:1 5619:1 5625:1 5633:1 5649:2 5681:1 5750:1 5787:1 5810:1 5844:1 5879:1 5922:1 5957:2 6034:4 6173:2 6187:1 6194:2 6200:1 6243:1 6246:2 6247:1 6248:1 6281:1 6303:1 6329:1 6333:5 6354:1 6361:1 6374:2 6376:1 6519:1 6520:1 6581:1 6597:1 6607:1 6652:1 6656:1 6663:1 6712:1 6734:2 6826:1 6832:1 6902:1 6937:1 6991:1 6992:1 7029:1 7068:1 7078:1 7081:1 7085:1 7095:1 7157:1 7176:1 7190:1 7214:1 7275:1 7279:1 7313:1 7415:1 7458:1 7466:2 7481:2 7508:1 7568:1 7610:1 7655:1 7659:1 7679:1 7694:1 7742:1 7763:1 7766:3 7785:2 7807:1 7815:1 7839:1 7845:1 7846:1 7849:1 7882:2 
1.00857714555531 0.06252181505449213 0.7872079401785328 0.09862685392023327 47:1 63:1 64:1 132:1 214:4 239:1 246:1 248:1 327:3 366:1 379:1 416:1 457:1 463:1 508:1 607:1 638:1 775:1 808:1 857:1 885:1 950:1 1016:2 1048:1 1120:1 1153:1 1154:1 1192:2 1198:1 1214:16 1222:1 1236:1 1239:2 1247:1 1297:1 1357:2 1372:1 1395:3 1427:1 1439:1 1446:1 1457:1 1465:1 1502:1 1505:3 1622:1 1633:2 1656:1 1722:2 1740:1 1748:5 1769:1 1850:1 1886:3 1951:1 1998:1 2071:2 2081:1 2191:1 2270:1 2326:1 2328:1 2497:1 2514:1 2526:1 2537:1 2613:1 2655:3 2762:1 2767:1 2890:1 2898:1 2904:1 2906:1 2914:2 2917:2 2957:1 2991:2 3009:1 3048:1 3093:1 3125:1 3216:1 3263:1 3329:1 3342:2 3375:2 3392:2 3393:1 3396:1 3398:1 3433:1 3683:1 3812:1 3847:2 3884:2 3885:1 3886:2 3911:1 3919:1 3927:1 3960:1 4032:1 4039:1 4041:1 4060:1 4079:1 4087:1 4097:3 4120:14 4127:1 4128:3 4130:4 4146:1 4148:1 4159:2 4170:3 4173:1 4182:4 4196:1 4214:1 4299:1 4316:1 4344:1 4349:6 4359:1 4474:1 4496:1 4576:1 4611:1 4653:1 4661:3 4686:2 4735:1 4803:1 4829:1 4837:1 4844:8 4851:1 4864:1 4915:1 5025:1 5063:1 5115:3 5116:1 5163:1 5253:1 5316:1 5323:1 5326:1 5334:2 5357:1 5368:1 5380:1 5385:1 5395:1 5421:1 5424:1 5434:1 5437:1 5515:1 5533:1 5549:1 5564:1 5619:1 5629:1 5636:1 5648:1 5655:1 5667:1 5668:1 5675:1 5787:1 5839:1 5922:1 5941:2 5958:1 5961:1 6033:1 6034:2 6065:4 6123:1 6166:1 6170:1 6173:1 6186:1 6224:1 6227:1 6257:1 6333:1 6351:1 6387:1 6389:4 6402:1 6453:1 6507:1 6508:3 6521:1 6524:1 6536:2 6566:1 6581:1 6587:1 6635:2 6652:1 6660:2 6769:1 6876:1 6877:1 6917:2 6924:1 6929:1 6968:1 7069:1 7081:1 7119:3 7132:1 7264:1 7288:1 7313:3 7375:1 7410:1 7415:1 7417:1 7494:1 7616:1 7654:1 7655:1 7659:1 7708:1 7720:1 7747:1 7757:2 7815:1 7821:2 7857:1 7869:2 7882:2 7916:1 
3.630891842063515 1.207718244662805 2.081344418465844 1.852103950347666 18:1 70:1 73:1 108:1 121:1 139:1 140:1 153:1 177:1 208:1 213:1 214:1 227:1 234:1 247:1 270:1 290:1 291:2 338:2 354:1 381:3 471:2 491:1 508:1 590:1 638:2 639:1 645:1 764:1 775:1 808:1 854:1 931:1 998:1 1001:1 1005:1 1010:2 1079:1 1107:1 1134:1 1144:1 1180:1 1221:1 1235:1 1297:2 1326:1 1407:1 1431:1 1470:1 1491:2 1511:1 1578:1 1587:1 1606:1 1621:1 1683:2 1726:1 1740:1 1757:3 1810:1 1856:8 1857:1 1883:1 1901:1 1930:1 1931:1 1932:1 1982:1 2022:1 2026:1 2036:1 2064:2 2095:2 2156:1 2163:1 2181:1 2206:1 2264:2 2266:1 2286:1 2298:1 2310:1 2322:1 2374:1 2386:1 2418:2 2433:1 2443:1 2450:1 2451:1 2464:1 2497:1 2528:1 2541:2 2551:1 2553:1 2559:2 2583:1 2596:6 2600:1 2603:1 2607:1 2613:3 2621:1 2675:1 2683:1 2787:2 2812:1 2820:1 2860:1 2874:1 2900:3 2929:1 2938:3 2957:1 3001:3 3067:1 3101:1 3125:1 3126:15 3134:1 3178:1 3182:1 3277:1 3318:2 3358:1 3416:1 3439:1 3461:1 3534:1 3536:1 3547:1 3550:1 3553:1 3591:2 3596:1 3614:1 3622:1 3668:1 3731:4 3796:1 3812:1 3816:2 3852:1 3884:2 3886:1 3911:1 3927:1 3931:1 3934:1 3949:1 3955:1 3964:1 3988:2 3998:6 4004:1 4027:1 4039:1 4065:1 4066:1 4080:1 4150:1 4159:1 4249:1 4258:3 4297:3 4386:1 4391:1 4411:2 4474:1 4496:2 4526:1 4528:1 4540:1 4545:7 4549:5 4574:2 4617:1 4659:1 4661:2 4805:1 4811:1 4829:3 4841:1 4879:1 4918:1 5031:2 5042:1 5097:1 5113:1 5131:1 5154:1 5157:1 5161:1 5167:1 5168:1 5194:1 5203:1 5226:1 5301:2 5365:1 5378:1 5391:1 5409:2 5412:3 5417:1 5433:3 5489:3 5490:1 5540:1 5541:2 5547:1 5606:1 5618:1 5620:1 5624:2 5626:1 5632:1 5633:2 5648:1 5649:2 5667:1 5740:1 5787:2 5800:1 5805:1 5878:1 5942:1 5979:1 6000:1 6031:8 6034:8 6056:1 6095:1 6162:1 6192:3 6204:2 6205:1 6256:1 6259:1 6264:1 6266:1 6333:4 6358:1 6432:1 6436:1 6462:1 6488:1 6517:1 6519:1 6531:1 6544:1 6580:3 6599:1 6617:1 6656:1 6691:1 6694:1 6707:1 6734:1 6761:1 6787:1 6924:1 6939:4 6946:1 7012:1 7036:1 7057:3 7058:1 7065:1 7066:2 7067:2 7074:3 7081:4 7088:1 7119:5 7161:1 7204:1 7205:3 7224:2 7269:1 7270:1 7279:1 7313:1 7328:1 7417:1 7448:2 7458:1 7492:1 7516:1 7520:1 7567:1 7593:1 7603:1 7639:3 7659:3 7705:1 7708:2 7720:2 7724:2 7728:1 7751:2 7757:1 7766:4 7803:1 7813:1 7815:3 7821:2 7833:1 7846:1 7849:2 7869:4 7877:2 7882:2 
0 0 0 0.6568669537365921 27:3 28:1 56:1 70:1 73:2 82:1 207:1 209:1 212:4 214:3 327:2 363:1 379:2 392:3 394:3 442:1 457:2 489:1 508:1 602:1 610:1 638:1 639:2 681:1 702:1 741:1 750:1 845:2 892:1 952:1 956:1 989:3 1010:1 1018:1 1060:1 1120:2 1208:1 1217:1 1226:1 1240:1 1259:1 1285:2 1287:3 1288:2 1309:4 1355:1 1413:2 1439:4 1469:1 1488:1 1500:1 1566:1 1579:1 1592:2 1693:2 1727:1 1731:1 1750:2 1767:1 1771:1 1806:1 1813:1 1835:2 1843:1 1852:1 1853:2 1861:1 1895:1 1919:1 1932:1 1974:1 2010:1 2026:1 2141:1 2142:1 2167:1 2181:1 2183:1 2231:1 2240:1 2244:2 2249:1 2264:1 2274:1 2288:1 2309:2 2345:2 2358:1 2374:2 2379:1 2386:1 2398:1 2419:2 2422:1 2430:1 2433:2 2444:1 2450:1 2455:1 2458:1 2501:1 2516:1 2537:1 2553:1 2593:1 2600:1 2613:1 2616:1 2635:1 2662:1 2669:1 2682:1 2728:1 2729:1 2744:1 2806:2 2859:1 2876:1 2917:2 2933:1 2944:1 3047:1 3104:2 3106:1 3148:2 3171:1 3183:2 3229:1 3242:1 3253:1 3285:2 3318:1 3320:1 3324:2 3336:1 3391:1 3392:1 3433:2 3528:1 3574:2 3718:1 3731:1 3759:1 3786:1 3806:1 3868:1 3879:1 3881:1 3884:2 3925:1 3964:1 3974:1 3998:3 4023:2 4025:1 4031:1 4080:1 4091:1 4101:1 4123:1 4142:1 4151:2 4158:3 4159:1 4182:1 4234:1 4237:1 4258:1 4276:1 4279:1 4312:3 4377:1 4395:1 4425:1 4447:1 4458:1 4459:2 4474:3 4504:1 4535:6 4545:9 4568:1 4576:4 4588:1 4617:3 4630:1 4637:2 4661:1 4686:4 4737:3 4778:3 4810:2 4829:4 4844:2 4863:2 4864:8 4867:1 4888:1 4907:1 4927:1 4931:1 4939:1 4966:1 4970:1 5034:1 5035:2 5044:1 5109:1 5115:3 5184:5 5218:4 5231:1 5238:2 5250:1 5253:1 5533:1 5601:1 5620:1 5648:1 5649:1 5790:1 5798:1 5800:1 5819:1 5844:1 5851:1 5863:1 5879:1 5894:1 5907:1 5911:1 5960:1 6034:6 6095:2 6139:2 6163:1 6181:5 6187:1 6323:1 6330:1 6361:1 6384:1 6392:1 6405:1 6409:3 6446:1 6519:1 6544:3 6574:1 6591:2 6592:1 6614:1 6711:1 6712:1 6713:1 6728:13 6729:1 6732:1 6735:1 6738:1 6742:1 6746:1 6747:1 6759:1 6760:1 6768:1 6780:2 6829:2 6831:1 6837:1 6838:1 6868:1 6917:6 6939:2 6987:1 7000:2 7043:1 7044:3 7054:2 7062:1 7093:1 7119:2 7132:1 7151:1 7152:1 7157:1 7160:1 7172:2 7176:1 7213:1 7260:1 7273:1 7313:1 7575:1 7578:8 7587:1 7600:1 7602:1 7611:1 7613:1 7624:1 7639:1 7655:1 7659:1 7660:1 7682:1 7705:1 7766:2 7777:2 7778:1 7807:1 7811:1 7815:7 7821:1 7829:1 7848:1 7849:1 7877:2 7882:1 7888:1 
0.394933375427968 0 0.7607945078801135 0.2865236351043267 17:1 18:1 28:1 42:1 139:1 207:2 210:1 214:2 224:3 313:1 324:1 337:1 338:2 384:1 387:3 400:1 416:1 457:1 468:1 492:1 495:2 541:9 627:1 637:1 655:1 702:1 763:1 775:1 831:1 874:1 875:1 951:1 968:1 1030:1 1048:4 1050:1 1079:1 1117:1 1137:1 1218:5 1219:1 1246:1 1264:3 1364:1 1381:1 1395:3 1396:1 1477:1 1491:2 1517:1 1522:1 1576:1 1609:5 1640:1 1670:1 1707:9 1708:3 1715:1 1726:3 1730:1 1735:1 1750:1 1759:1 1763:1 1813:1 1852:1 1857:2 1901:2 1907:3 1909:1 1932:2 2006:1 2033:2 2036:2 2074:1 2080:1 2088:1 2181:1 2196:3 2206:1 2217:1 2280:1 2285:1 2374:2 2405:1 2433:1 2452:1 2456:1 2458:1 2460:1 2469:1 2488:1 2505:1 2507:1 2541:1 2554:1 2560:1 2585:1 2588:1 2596:2 2600:1 2606:1 2613:3 2648:1 2696:1 2727:6 2744:1 2755:1 2758:1 2770:1 2778:1 2788:1 2809:1 2872:1 2905:1 2914:1 2917:1 2938:1 3009:2 3047:1 3065:2 3072:12 3134:1 3300:1 3310:1 3334:1 3387:1 3409:2 3441:1 3448:1 3471:1 3504:1 3532:1 3535:1 3536:1 3546:1 3553:1 3567:1 3574:1 3687:1 3692:1 3705:1 3721:1 3731:3 3759:2 3767:1 3774:1 3780:1 3796:2 3812:1 3816:1 3818:1 3847:2 3874:1 3884:1 3886:3 3919:1 3923:1 3934:1 3938:1 3954:1 3985:1 3998:5 4000:1 4003:1 4008:1 4031:2 4060:2 4066:2 4080:1 4100:1 4104:1 4120:10 4126:1 4130:1 4148:1 4159:1 4161:1 4182:1 4239:1 4253:1 4258:1 4291:1 4301:1 4328:2 4349:1 4388:1 4391:3 4411:2 4456:1 4539:1 4545:7 4549:1 4597:1 4659:1 4661:2 4679:1 4705:1 4752:1 4761:1 4775:1 4791:1 4805:1 4806:1 4818:1 4836:3 4839:1 4841:1 4844:5 4879:1 4955:1 4970:1 4977:1 4993:1 5012:7 5025:1 5053:1 5101:2 5114:1 5115:1 5116:1 5127:1 5131:2 5176:4 5179:1 5184:2 5220:1 5237:1 5238:1 5296:1 5326:1 5346:1 5357:1 5367:2 5395:3 5430:3 5442:1 5492:1 5515:1 5592:1 5629:1 5630:1 5633:2 5750:1 5780:1 5790:1 5798:1 5894:1 5908:1 5922:1 5941:2 5983:2 6007:1 6034:11 6123:1 6139:1 6187:1 6192:4 6248:1 6251:1 6257:1 6311:1 6313:1 6333:2 6384:1 6456:1 6466:1 6471:1 6507:1 6518:1 6519:1 6525:1 6566:1 6598:1 6652:1 6675:1 6694:2 6735:1 6768:1 6772:1 6780:2 6822:1 6848:1 6868:1 6913:3 6937:1 6943:1 6946:1 6988:2 7000:1 7004:1 7049:2 7066:1 7067:2 7075:1 7080:1 7081:2 7084:1 7132:2 7141:1 7157:1 7158:1 7179:1 7213:1 7214:1 7233:1 7280:1 7299:1 7304:1 7344:1 7368:1 7374:1 7422:1 7458:1 7481:1 7485:1 7639:4 7659:2 7705:1 7720:1 7724:2 7742:1 7748:1 7754:1 7757:1 7766:1 7769:1 7793:2 7801:1 7815:7 7821:2 7833:1 7869:5 7885:1 
3.286559988822256 0.07367267653729999 3.074790705644481 1.333868489027547 35:1 49:1 84:1 98:1 108:1 132:1 137:1 154:1 207:1 239:2 246:2 284:1 290:3 313:1 319:1 327:1 359:1 369:1 381:3 387:2 400:6 409:1 443:2 451:4 473:1 496:1 522:1 550:1 559:1 563:3 564:1 624:2 639:1 683:1 688:2 702:1 729:2 761:1 775:1 784:1 797:1 834:1 839:1 876:1 885:2 974:1 989:2 1010:2 1018:1 1019:1 1105:1 1120:1 1122:1 1134:1 1140:1 1155:3 1166:1 1262:1 1279:1 1325:1 1355:1 1360:1 1389:1 1400:1 1424:1 1442:1 1458:1 1484:1 1554:1 1571:1 1633:1 1672:1 1683:1 1693:1 1730:1 1740:1 1742:1 1748:1 1763:1 1769:1 1795:1 1852:1 1855:1 1866:1 1907:1 1922:3 1930:1 1932:1 1962:1 2021:1 2037:1 2074:1 2080:1 2165:1 2191:1 2202:1 2260:1 2264:1 2285:1 2290:1 2298:1 2321:1 2328:1 2366:1 2379:1 2381:2 2400:1 2407:1 2422:1 2429:2 2507:1 2543:1 2559:1 2561:1 2593:1 2603:1 2607:1 2613:1 2621:2 2669:1 2689:1 2758:4 2770:1 2775:5 2793:1 2813:1 2876:1 2900:1 2917:1 2926:1 2939:1 2955:1 2957:1 2966:1 2977:4 3057:1 3065:10 3105:1 3114:1 3171:1 3185:2 3195:1 3246:1 3275:2 3296:4 3300:1 3301:1 3357:1 3358:1 3360:1 3408:1 3528:1 3539:1 3547:4 3563:1 3570:1 3574:2 3576:1 3577:1 3604:1 3659:3 3703:1 3741:2 3879:1 3884:2 3886:1 3898:1 3910:3 3925:1 3964:1 3988:1 3994:1 3998:3 4004:1 4026:1 4032:1 4038:1 4065:1 4066:2 4077:1 4100:1 4120:2 4128:1 4130:1 4139:1 4153:1 4158:1 4159:2 4161:2 4182:2 4202:1 4279:1 4282:1 4324:1 4372:1 4406:1 4410:1 4426:3 4481:1 4539:1 4545:7 4549:1 4579:1 4597:1 4611:4 4634:1 4653:2 4659:3 4661:3 4681:1 4686:2 4737:4 4750:2 4752:2 4806:1 4813:1 4829:6 4834:1 4840:1 4879:1 4928:1 4970:1 5012:1 5025:2 5089:1 5105:1 5167:2 5188:3 5214:1 5215:1 5218:1 5253:2 5267:3 5270:1 5309:1 5359:1 5370:2 5371:1 5373:1 5392:1 5404:1 5429:1 5430:1 5437:1 5458:1 5515:2 5541:2 5584:1 5597:4 5607:1 5619:3 5649:4 5667:1 5692:1 5702:1 5740:1 5785:1 5787:1 5790:2 5820:1 5822:1 5850:1 5894:2 5920:1 5958:1 6033:2 6034:6 6036:1 6077:1 6086:1 6131:1 6139:1 6171:1 6176:1 6190:1 6207:1 6248:1 6249:1 6251:1 6257:1 6266:1 6267:1 6283:1 6330:1 6332:1 6333:11 6344:1 6455:1 6462:1 6487:1 6490:1 6520:1 6562:1 6566:1 6569:1 6575:1 6598:1 6605:1 6660:1 6665:1 6712:2 6728:2 6737:1 6769:1 6787:2 6822:1 6939:1 6946:8 7001:4 7002:1 7047:1 7063:1 7067:1 7081:1 7119:4 7132:1 7155:1 7221:2 7240:1 7269:1 7272:1 7279:2 7292:1 7299:2 7322:1 7351:1 7377:1 7415:1 7448:1 7475:1 7481:2 7514:1 7523:1 7567:1 7568:1 7616:1 7659:1 7660:1 7705:1 7708:1 7710:1 7711:1 7718:1 7742:1 7748:3 7754:1 7776:1 7779:1 7793:1 7802:1 7846:1 7847:1 7869:3 7882:1 7885:1 
2.291300903474943 0.2790795677583329 1.628155695746749 0 119:1 207:1 214:2 239:1 277:8 283:1 384:1 419:1 457:1 565:6 625:1 637:2 989:1 1060:2 1107:2 1116:1 1153:1 1240:1 1374:1 1381:1 1383:1 1412:4 1427:3 1430:2 1442:1 1448:1 1491:1 1793:1 2071:1 2239:1 2259:1 2286:1 2302:1 2374:1 2377:1 2448:1 2461:1 2598:1 2613:3 2628:1 2635:1 2666:1 2719:1 2744:1 2882:1 3009:1 3101:1 3104:1 3275:1 3288:1 3382:1 3393:2 3433:1 3550:1 3567:1 3650:1 3658:1 3713:1 3917:1 3960:1 3998:1 4032:1 4130:1 4148:1 4425:1 4474:1 4540:3 4545:8 4576:2 4615:1 4661:3 4732:2 4790:1 4803:2 4839:1 5039:1 5115:2 5178:1 5179:2 5184:2 5218:2 5240:1 5243:1 5251:1 5287:1 5357:1 5367:1 5430:1 5434:1 5607:1 5655:1 5667:1 5692:1 5763:1 5764:3 5873:1 5874:1 6009:4 6010:1 6057:1 6108:1 6170:1 6181:1 6264:1 6327:1 6398:1 6525:3 6543:1 6566:1 6591:1 6656:1 6660:1 6896:1 6988:1 7044:1 7068:1 7087:1 7094:1 7152:1 7174:1 7195:1 7270:1 7509:1 7610:1 7613:1 7616:1 7649:1 7667:1 7679:1 7754:1 7815:5 7847:1 7882:2 
0.7807219242614835 1.012223892069634 1.961393819333427 1.84452972679833 1:1 202:1 214:2 239:1 246:2 319:1 326:1 375:1 381:1 382:1 442:2 444:1 457:2 483:1 497:1 508:2 596:3 637:1 683:1 744:1 757:1 808:1 899:1 905:1 1010:3 1048:1 1096:1 1120:1 1138:1 1146:2 1215:2 1259:2 1262:1 1266:1 1346:1 1355:1 1359:1 1406:1 1413:1 1427:2 1508:2 1609:1 1726:1 1757:1 1841:1 1886:1 1907:2 1997:1 2007:1 2033:1 2042:5 2048:2 2141:1 2149:1 2291:3 2374:1 2381:3 2469:1 2497:1 2526:1 2613:1 2621:1 2656:1 2669:1 2670:1 2719:3 2721:1 2740:1 2744:2 2773:1 2775:1 3045:1 3068:1 3101:1 3114:1 3184:2 3193:1 3201:1 3226:1 3279:1 3285:2 3303:1 3392:1 3539:2 3574:1 3591:1 3593:1 3612:1 3665:1 3683:1 3687:1 3773:1 3852:1 3879:1 3886:1 3994:1 3998:3 4032:1 4060:1 4066:2 4079:1 4120:10 4130:1 4136:1 4159:1 4181:3 4215:1 4237:1 4316:4 4350:1 4374:1 4455:1 4528:1 4539:2 4543:1 4576:4 4577:2 4597:1 4661:1 4671:1 4676:1 4737:1 4761:1 4762:1 4778:2 4829:3 4864:3 4869:2 4870:1 4879:1 4971:1 4978:1 5042:1 5101:1 5115:2 5131:1 5133:1 5161:1 5163:2 5218:4 5219:1 5240:1 5243:1 5253:1 5357:1 5424:1 5430:1 5469:1 5536:2 5537:2 5551:7 5590:1 5635:1 5645:1 5667:2 5685:2 5710:1 5715:1 5729:1 5734:1 5750:1 5775:1 5780:1 5816:1 5839:1 5913:1 5918:1 6033:1 6034:7 6123:1 6125:1 6187:1 6235:1 6257:1 6371:1 6380:1 6389:1 6397:1 6455:1 6508:1 6543:1 6544:1 6581:1 6635:1 6637:1 6647:1 6656:1 6694:1 6747:2 6768:1 6769:2 6828:1 6832:1 6877:1 6917:2 6973:10 6978:1 7118:1 7139:1 7143:1 7157:1 7179:1 7190:1 7322:1 7384:1 7616:1 7639:2 7681:1 7724:1 7748:1 7769:1 7777:4 7792:1 7802:1 7807:1 7811:1 7815:2 7821:1 7869:3 7882:1 
9.482865866148853 10.5989356352663 20.84360775130166 5.502940788902011 68:1 183:1 265:1 309:1 319:1 387:2 388:1 694:1 746:1 755:1 763:1 803:1 896:1 898:1 907:1 929:1 989:1 1121:1 1133:1 1370:1 1547:1 1578:1 1591:1 1609:1 1726:2 1835:1 2002:1 2031:1 2041:1 2074:1 2168:1 2217:1 2390:1 2429:1 2433:1 2497:1 2507:1 2563:1 2603:1 2613:1 2619:1 2654:1 2719:1 2793:1 2836:1 2872:1 2952:1 3016:1 3104:1 3120:3 3171:1 3186:2 3277:1 3303:2 3433:2 3509:1 3560:1 3660:1 3731:1 3763:1 3911:1 3934:1 3998:1 4028:1 4060:1 4117:1 4120:1 4127:1 4130:2 4138:1 4237:1 4316:1 4646:1 4700:1 4829:1 4851:1 4970:2 4982:1 5053:1 5172:1 5183:1 5296:2 5299:1 5388:1 5397:2 5634:1 5678:1 5755:1 5806:1 5879:1 5908:1 6005:1 6102:1 6108:1 6158:1 6257:2 6262:1 6281:1 6329:1 6417:1 6472:1 6557:1 6897:1 6943:1 7050:1 7119:1 7146:1 7232:1 7265:1 7649:1 7748:1 7769:1 7809:1 7815:1 7885:1 
1.730595865249353 0 0 0 46:3 63:1 73:2 128:1 133:1 139:1 153:1 194:1 204:1 214:1 217:1 238:1 239:2 278:1 286:1 290:4 322:1 327:2 338:1 381:10 387:3 416:2 472:1 483:1 513:1 624:2 627:4 638:2 688:1 778:1 797:2 808:1 869:1 875:1 885:1 886:1 928:1 929:1 931:1 974:1 986:2 987:3 989:2 1026:1 1027:1 1037:1 1048:1 1096:1 1117:1 1146:1 1198:1 1226:2 1236:1 1344:1 1345:1 1369:1 1379:1 1389:2 1395:2 1396:1 1469:1 1558:1 1571:2 1609:1 1633:1 1736:1 1740:1 1750:1 1764:1 1857:1 1868:1 1886:2 1931:1 1962:1 1963:1 1975:2 2020:1 2029:1 2063:1 2076:1 2212:1 2243:1 2260:1 2313:1 2352:1 2355:1 2374:1 2378:1 2487:1 2497:2 2501:1 2518:1 2583:1 2596:1 2604:1 2661:1 2674:1 2744:1 2759:1 2786:1 2794:1 2836:3 2857:1 2862:1 2870:1 2881:1 2935:1 2998:1 3009:1 3022:1 3042:1 3045:1 3068:1 3082:2 3114:1 3126:1 3230:1 3259:1 3263:7 3267:1 3279:1 3303:1 3332:1 3333:1 3359:1 3433:2 3472:2 3528:1 3622:1 3645:1 3685:1 3698:1 3803:19 3812:1 3818:1 3847:1 3871:1 3884:1 3885:1 3886:1 3981:1 3994:2 3998:4 4000:1 4010:1 4027:1 4028:1 4032:3 4039:1 4065:1 4066:1 4130:1 4148:1 4151:1 4159:1 4172:1 4182:1 4208:2 4228:4 4238:1 4291:1 4339:2 4406:3 4458:1 4474:1 4528:1 4531:1 4539:2 4545:15 4549:1 4576:1 4597:1 4611:1 4617:2 4653:1 4661:4 4722:1 4727:1 4791:1 4805:1 4811:2 4818:1 4829:2 4834:1 4841:2 4949:1 4970:8 4971:2 5025:1 5053:1 5076:2 5101:4 5103:1 5131:1 5215:1 5227:1 5287:1 5296:1 5305:1 5324:1 5367:1 5373:1 5388:1 5397:3 5420:3 5421:1 5433:1 5472:1 5493:1 5494:2 5515:2 5533:1 5548:1 5576:1 5590:1 5601:1 5620:1 5629:2 5633:1 5638:1 5687:1 5692:1 5729:2 5750:1 5754:1 5755:1 5793:1 5810:1 5816:1 5824:1 5835:1 5836:1 5839:1 5901:1 5914:1 5928:1 5958:2 6005:1 6010:1 6033:1 6034:6 6041:1 6058:1 6086:1 6108:4 6193:1 6207:2 6231:1 6304:1 6319:1 6330:1 6358:1 6376:1 6377:1 6391:1 6407:1 6409:2 6455:1 6502:1 6531:1 6566:1 6612:1 6632:1 6656:1 6661:1 6734:1 6769:1 6876:1 6914:1 6922:1 6980:1 7001:1 7054:1 7069:4 7074:1 7075:1 7081:1 7152:1 7157:1 7158:1 7194:1 7195:1 7197:2 7206:1 7210:1 7312:1 7324:1 7326:1 7417:1 7474:1 7485:1 7498:1 7567:1 7602:1 7639:1 7642:1 7648:1 7649:2 7653:2 7677:1 7692:1 7720:1 7742:1 7762:1 7815:7 7821:2 7849:2 7860:2 7869:1 7877:2 7885:2 
6.971135946620621 3.156827197013341 8.664107249121734 2.852775600371521 18:1 27:1 82:1 133:1 137:1 174:1 207:1 214:1 215:1 224:2 246:1 349:3 350:6 354:1 375:2 381:1 416:1 492:1 508:1 579:1 606:1 624:1 675:2 688:1 702:1 876:1 912:3 929:13 931:2 989:3 1004:1 1005:1 1010:3 1107:1 1117:7 1120:1 1153:1 1162:1 1192:1 1194:1 1241:1 1247:1 1297:2 1358:1 1364:2 1406:1 1433:4 1448:1 1522:1 1558:1 1569:11 1571:1 1597:1 1654:1 1665:1 1701:1 1738:1 1742:3 1757:1 1808:1 1819:3 1852:1 1856:4 1861:1 1866:1 1893:1 1932:2 1979:1 1982:1 2033:1 2152:1 2178:2 2183:1 2265:1 2302:2 2343:1 2345:1 2355:1 2374:1 2395:1 2400:1 2413:1 2429:1 2468:3 2483:1 2533:1 2541:1 2547:1 2553:1 2559:1 2588:1 2620:1 2694:1 2719:1 2763:1 2813:1 2938:2 2948:1 2965:4 2973:4 3009:1 3015:1 3022:1 3114:1 3129:1 3163:1 3186:1 3224:1 3227:1 3244:2 3245:1 3246:1 3295:1 3303:1 3332:1 3358:1 3362:1 3407:1 3416:1 3433:1 3467:1 3536:1 3574:1 3731:3 3759:1 3870:1 3884:1 3910:2 3911:1 3918:1 3940:2 3941:1 3998:4 4022:2 4025:1 4045:1 4060:1 4143:1 4151:1 4181:2 4182:3 4206:1 4243:1 4322:1 4377:1 4391:1 4406:3 4435:1 4458:1 4459:3 4470:1 4487:1 4496:2 4500:1 4545:1 4549:1 4574:1 4611:1 4661:3 4671:1 4724:1 4775:1 4805:1 4806:1 4818:1 4829:4 4846:1 4851:1 4861:3 4869:1 4879:1 4963:1 5025:1 5063:1 5101:4 5104:1 5159:1 5215:1 5217:1 5326:1 5368:3 5369:3 5392:1 5409:1 5420:1 5430:1 5437:1 5467:1 5492:1 5515:1 5559:1 5614:1 5620:1 5629:1 5649:3 5727:1 5731:1 5769:2 5790:2 5803:1 5806:1 5810:1 5859:1 5955:1 5992:3 6033:5 6034:6 6089:5 6164:1 6171:1 6187:2 6257:1 6264:2 6281:1 6330:1 6333:1 6351:1 6358:1 6371:1 6376:1 6379:1 6468:1 6519:1 6540:1 6616:1 6654:1 6660:1 6707:1 6713:2 6734:1 6749:1 6756:1 6760:3 6761:1 6780:3 6787:1 6857:1 6905:1 6922:1 7012:1 7043:1 7044:2 7055:1 7066:2 7067:2 7075:1 7119:1 7160:1 7190:1 7197:1 7263:1 7326:1 7415:1 7498:1 7503:1 7516:1 7531:1 7543:1 7559:1 7576:2 7639:2 7659:3 7676:1 7677:1 7679:1 7696:1 7714:1 7742:1 7754:1 7766:1 7802:1 7816:1 7821:1 7847:1 7857:1 7869:3 7882:1 
7.763409521528318 6.847702252479444 14.14365835435081 6.133560488174679 3:1 63:1 154:1 214:1 441:1 519:1 587:1 622:1 729:1 769:1 808:1 831:1 932:1 967:1 974:1 1106:1 1187:1 1517:1 1520:1 1547:1 1571:1 1587:1 1808:1 1856:1 1982:1 2142:1 2191:1 2195:1 2208:1 2264:1 2302:1 2418:1 2461:1 2554:1 2600:1 2635:1 2654:2 2688:1 2744:1 2836:4 2872:1 2935:1 3140:1 3193:1 3226:1 3231:1 3283:1 3307:1 3460:1 3644:1 3759:1 3806:2 3884:1 3885:1 3919:1 3961:1 3994:2 4060:1 4088:1 4120:3 4130:1 4151:1 4172:1 4418:1 4426:1 4545:1 4549:1 4617:1 4829:4 4837:1 4851:2 4867:1 4904:1 4940:4 5184:2 5204:2 5304:1 5620:1 5677:1 5786:1 5854:1 5958:1 5981:1 6000:2 6145:1 6149:1 6192:1 6204:1 6257:1 6358:1 6391:2 6400:1 6534:1 6572:1 6579:1 6711:1 6881:1 6986:1 7017:1 7061:1 7088:1 7222:3 7246:1 7313:2 7371:1 7481:1 7560:1 7591:1 7639:1 7649:4 7704:1 7730:1 7748:1 7809:1 7815:1 
2.446660678582298 1.108182001658636 1.384846857720911 0.7903839302524689 17:1 125:1 127:1 162:1 224:1 228:1 238:1 239:1 270:1 314:1 319:1 338:1 354:1 377:1 400:1 445:1 473:1 508:1 551:8 593:1 744:1 882:1 885:1 903:1 952:1 1001:1 1010:3 1028:1 1037:1 1053:1 1075:1 1095:1 1123:1 1124:1 1137:1 1146:2 1193:1 1261:1 1276:1 1318:1 1357:1 1363:1 1364:1 1389:1 1404:1 1413:1 1468:1 1571:2 1572:1 1609:1 1652:1 1659:1 1675:3 1682:1 1693:2 1708:1 1750:2 1754:1 1787:1 1788:1 1877:1 1896:1 1899:1 1907:2 1932:1 1953:1 1997:1 2022:1 2026:1 2055:3 2074:1 2088:1 2097:1 2147:1 2163:1 2206:1 2207:1 2217:2 2271:1 2276:1 2285:1 2291:1 2298:1 2303:1 2365:1 2374:1 2490:1 2497:1 2501:1 2519:1 2554:1 2576:2 2587:1 2596:2 2608:1 2659:1 2705:1 2740:1 2741:1 2742:1 2757:1 2812:1 2816:2 2872:2 2900:1 2938:1 2973:1 2985:1 3045:1 3047:1 3075:1 3096:8 3097:6 3182:1 3183:2 3187:1 3242:1 3245:1 3264:1 3285:1 3337:1 3395:1 3407:1 3433:1 3438:1 3536:2 3573:1 3657:1 3687:1 3731:1 3759:1 3778:1 3818:2 3873:1 3882:1 3889:1 3913:1 3923:1 3966:1 3994:1 3998:1 4023:1 4031:2 4039:1 4063:1 4080:2 4082:1 4159:3 4172:1 4182:2 4316:1 4359:1 4367:1 4377:1 4411:1 4447:1 4474:1 4530:1 4531:1 4539:1 4545:4 4576:8 4577:1 4605:1 4611:1 4630:1 4637:1 4661:3 4686:1 4724:1 4727:1 4752:1 4761:1 4803:1 4818:1 4829:2 4836:2 4837:1 4864:5 4869:1 4892:1 4907:2 5034:1 5035:1 5042:1 5053:1 5062:1 5074:1 5101:1 5187:1 5215:1 5218:3 5231:3 5267:1 5281:1 5287:1 5326:1 5390:1 5412:1 5564:2 5590:1 5601:1 5619:1 5633:1 5645:1 5649:2 5750:2 5751:1 5780:1 5790:1 5820:1 5873:1 5874:1 5946:1 6033:1 6034:2 6069:1 6093:1 6147:1 6173:1 6192:1 6237:12 6329:1 6333:1 6351:1 6384:1 6389:1 6446:1 6500:1 6519:1 6526:1 6544:3 6547:1 6566:1 6635:1 6651:1 6663:2 6676:1 6694:1 6712:1 6735:2 6780:3 6787:1 6832:1 6902:1 7002:1 7026:1 7066:1 7074:1 7081:2 7085:1 7094:1 7119:1 7135:1 7179:2 7195:1 7198:1 7205:1 7214:1 7280:1 7320:1 7417:1 7422:1 7481:1 7505:1 7516:1 7543:1 7626:1 7688:1 7709:1 7720:1 7742:1 7749:1 7766:1 7792:1 7793:1 7803:1 7815:1 7845:1 7869:3 7882:2 7885:1 7886:1 
3.833102330579365 3.764386877757642 11.84547983187026 0 296:1 346:1 387:3 508:1 511:1 702:1 729:1 775:1 803:1 867:1 1001:1 1117:1 1355:1 1370:1 1413:1 1561:1 1570:1 1587:1 1693:3 1820:1 2060:1 2080:1 2171:1 2181:1 2231:1 2274:1 2284:1 2441:1 2561:1 2568:1 2662:1 2836:1 2847:2 2850:1 2905:1 2922:1 3094:1 3299:1 3387:1 3406:1 3509:1 3528:1 3805:1 3818:2 4013:1 4031:1 4032:1 4066:1 4120:7 4130:2 4161:1 4228:1 4279:1 4416:1 4594:1 4687:1 4829:3 4963:1 4970:3 5115:1 5172:2 5184:1 5201:1 5299:1 5409:1 5421:1 5433:1 5488:1 5629:1 5672:1 5723:1 5763:1 5791:1 5792:1 5844:1 5878:1 6158:1 6257:1 6360:1 6383:1 6414:1 6487:1 6592:1 6646:1 6685:1 6780:1 6984:1 7229:1 7649:1 7730:2 7748:1 7751:1 7785:1 7809:1 
0 0 0 0.2521720219141097 44:1 45:1 63:1 64:2 69:1 93:1 94:1 100:1 121:1 185:1 191:1 197:1 205:1 214:3 239:3 246:2 252:1 281:2 283:5 286:1 290:2 294:1 341:2 352:1 368:1 376:1 381:4 387:1 391:1 394:1 436:1 443:1 445:1 449:1 457:2 461:2 471:3 481:1 485:1 487:5 489:3 496:1 508:1 525:1 551:1 570:1 582:2 625:1 627:1 629:1 637:3 639:1 688:1 706:1 718:1 764:1 789:2 850:2 876:3 877:1 884:1 889:2 899:3 929:1 989:2 1055:1 1056:1 1060:5 1079:3 1091:1 1107:6 1117:8 1137:1 1138:4 1144:2 1146:1 1180:1 1195:1 1220:2 1226:2 1229:1 1236:4 1247:2 1259:2 1264:2 1293:1 1297:1 1306:1 1313:1 1344:1 1346:1 1355:1 1363:2 1381:1 1395:1 1401:1 1406:1 1412:8 1413:1 1427:6 1428:4 1438:5 1439:2 1468:1 1472:1 1491:4 1500:1 1517:2 1530:2 1537:1 1561:1 1571:1 1580:1 1633:1 1646:1 1659:3 1686:1 1693:2 1698:1 1726:1 1728:1 1730:1 1738:1 1747:4 1748:1 1761:1 1826:1 1862:1 1883:2 1886:2 1930:2 1932:2 1998:2 2010:1 2012:1 2017:1 2041:1 2056:1 2060:1 2080:1 2110:1 2134:1 2141:1 2144:1 2153:4 2161:1 2181:1 2203:1 2205:4 2219:1 2270:1 2291:9 2297:1 2302:1 2350:1 2355:1 2366:2 2374:3 2404:3 2418:1 2428:1 2443:1 2448:1 2465:3 2490:1 2500:1 2501:2 2508:1 2519:1 2524:1 2534:1 2541:3 2558:1 2561:1 2576:5 2596:1 2600:2 2613:3 2616:3 2635:2 2640:1 2669:1 2675:1 2719:2 2733:3 2740:1 2752:1 2757:1 2770:4 2775:1 2786:12 2787:1 2806:1 2836:2 2846:1 2872:2 2890:2 2893:1 2896:1 2898:1 2906:1 2916:1 2957:1 2964:1 2969:1 2990:1 3009:4 3018:3 3036:1 3040:1 3045:2 3075:1 3104:15 3113:1 3125:1 3126:1 3134:1 3182:2 3183:2 3193:2 3230:1 3232:1 3275:1 3303:3 3336:1 3347:1 3373:1 3423:2 3433:9 3440:1 3451:1 3466:1 3500:1 3530:2 3536:2 3539:2 3550:1 3556:1 3576:1 3581:1 3585:1 3608:1 3622:2 3635:1 3641:1 3650:1 3651:1 3652:1 3654:1 3657:1 3659:2 3666:2 3669:1 3683:2 3687:2 3692:1 3718:2 3722:2 3756:1 3758:1 3834:5 3887:1 3898:1 3910:3 3911:1 3912:1 3931:2 3952:1 3954:1 3961:1 3968:1 3988:1 4008:6 4024:2 4032:1 4057:1 4066:4 4074:1 4087:1 4103:3 4117:1 4120:2 4146:1 4148:1 4150:1 4151:1 4159:1 4181:5 4182:1 4200:1 4206:2 4228:1 4237:2 4247:2 4250:1 4316:2 4319:1 4349:2 4350:1 4359:4 4365:2 4411:1 4425:2 4458:2 4459:1 4474:2 4478:3 4498:1 4543:4 4545:1 4574:1 4576:12 4586:1 4597:2 4609:1 4625:6 4628:3 4661:13 4662:1 4671:3 4686:2 4769:1 4803:4 4819:1 4829:4 4839:3 4841:3 4844:7 4864:5 4892:1 4941:1 4966:1 5012:4 5025:1 5026:1 5030:1 5042:1 5101:2 5115:18 5119:3 5136:1 5141:1 5163:2 5178:4 5179:4 5184:3 5215:1 5218:6 5231:2 5238:1 5246:1 5258:3 5266:1 5287:1 5297:1 5345:1 5356:1 5367:4 5370:1 5388:1 5407:1 5420:1 5421:6 5430:20 5433:3 5434:1 5536:17 5551:2 5590:1 5601:1 5612:2 5618:1 5636:1 5649:2 5655:4 5729:1 5732:1 5750:2 5757:1 5764:1 5776:1 5780:2 5788:1 5798:1 5800:1 5808:1 5820:1 5823:1 5831:1 5844:1 5859:1 5878:1 5893:1 5900:1 5914:1 5922:1 5941:1 5958:2 5971:3 5975:2 5976:2 6000:1 6086:14 6095:1 6123:1 6129:5 6166:1 6170:2 6171:1 6173:2 6187:1 6192:1 6222:1 6224:1 6246:1 6248:1 6257:2 6262:1 6264:1 6304:1 6306:1 6309:1 6333:1 6350:1 6387:3 6389:3 6391:1 6392:1 6411:1 6455:1 6464:6 6487:1 6502:1 6508:2 6525:3 6526:5 6536:2 6544:2 6548:1 6557:3 6569:1 6612:1 6614:1 6626:4 6647:1 6652:1 6680:1 6686:2 6687:1 6712:1 6728:2 6729:2 6734:23 6744:1 6747:10 6755:1 6768:5 6775:1 6781:1 6822:1 6832:8 6842:1 6843:1 6890:1 6917:7 6965:1 7019:1 7031:1 7044:14 7049:3 7053:1 7068:1 7081:4 7094:16 7119:3 7131:1 7132:1 7139:1 7147:5 7157:1 7174:1 7179:1 7187:1 7195:1 7224:1 7288:9 7313:2 7317:1 7397:2 7412:1 7500:2 7558:1 7576:3 7578:1 7586:1 7587:1 7588:2 7595:1 7603:1 7613:1 7615:2 7616:1 7634:1 7656:2 7676:1 7687:1 7688:1 7705:10 7708:1 7715:4 7718:1 7720:3 7724:2 7728:4 7761:1 7766:2 7768:1 7769:1 7777:1 7781:2 7801:1 7803:1 7812:6 7815:11 7845:1 7847:1 7869:4 7877:1 7882:2 7885:7 7888:1 7918:1 
1.084580993411623 0.8933386607996832 0 0 52:1 64:1 73:1 95:1 105:1 177:7 182:1 196:1 207:1 213:2 214:2 239:1 314:1 327:1 379:1 447:1 470:1 483:1 486:3 492:1 508:1 522:2 526:1 582:1 593:3 614:1 622:1 688:2 692:2 694:1 743:1 746:1 755:1 771:1 806:1 831:1 836:2 869:1 899:1 901:1 909:1 928:1 947:1 1010:1 1038:1 1051:1 1080:1 1141:1 1146:1 1195:1 1242:1 1247:1 1297:1 1306:1 1364:2 1369:1 1370:1 1461:1 1493:1 1574:1 1576:1 1584:1 1594:1 1596:1 1604:1 1621:1 1625:1 1639:1 1693:1 1705:1 1759:1 1769:2 1806:1 1809:1 1821:1 1860:1 1877:1 1901:1 1912:1 2026:1 2036:1 2046:1 2066:1 2078:1 2098:1 2141:1 2148:1 2156:1 2161:1 2181:1 2195:1 2207:2 2234:1 2264:1 2289:1 2310:1 2317:1 2328:1 2379:1 2381:1 2400:1 2434:1 2480:1 2507:2 2541:1 2553:2 2613:2 2621:1 2634:1 2659:1 2680:1 2683:1 2696:1 2715:1 2716:1 2746:1 2806:1 2844:1 2847:1 2878:2 2882:1 2900:1 2906:1 2917:2 2968:2 3024:1 3045:2 3075:3 3076:1 3094:1 3120:1 3134:1 3138:1 3156:1 3161:1 3184:1 3205:1 3237:1 3238:1 3247:1 3278:1 3334:1 3358:1 3409:1 3433:1 3478:1 3537:1 3604:1 3641:2 3695:1 3731:1 3736:3 3759:1 3778:1 3810:1 3879:1 3884:1 3885:1 3911:1 3925:1 3955:1 3960:2 3998:2 4025:1 4058:1 4066:1 4086:1 4130:1 4131:1 4148:1 4159:2 4172:1 4187:1 4243:1 4249:1 4255:1 4258:1 4313:1 4316:2 4322:1 4374:1 4411:1 4455:1 4474:2 4479:1 4496:2 4526:1 4545:3 4549:1 4556:1 4576:1 4617:1 4637:1 4659:2 4661:5 4686:1 4701:1 4724:1 4740:3 4752:1 4818:1 4819:1 4829:2 4861:1 4880:1 4895:1 4956:1 5025:1 5029:1 5035:1 5063:2 5081:1 5109:1 5131:1 5175:1 5215:1 5218:1 5281:1 5282:4 5299:1 5394:1 5420:2 5471:1 5515:1 5595:1 5600:1 5633:1 5649:2 5685:1 5687:1 5696:1 5734:2 5757:2 5815:1 5859:1 5872:2 5927:1 5942:1 5946:1 5960:2 6000:1 6070:4 6084:1 6173:1 6188:2 6224:2 6231:1 6264:1 6269:1 6287:1 6323:1 6330:1 6333:1 6351:2 6389:2 6391:3 6437:1 6446:1 6468:2 6502:1 6507:2 6526:5 6531:1 6540:1 6543:1 6544:3 6561:1 6574:1 6622:1 6636:1 6637:1 6687:1 6694:1 6734:1 6744:1 6780:3 6789:1 6806:1 6897:1 6939:1 6943:1 6984:1 7079:1 7081:1 7087:1 7119:2 7133:1 7176:1 7233:1 7248:1 7280:2 7365:1 7439:1 7466:1 7481:1 7493:1 7524:3 7560:1 7615:1 7616:1 7639:1 7648:1 7649:3 7659:1 7763:2 7788:1 7815:2 7869:4 7882:1 7885:2 
1.937382668810183 0 3.732761590485585 0 213:2 290:1 351:1 381:3 382:2 495:1 508:1 627:1 757:1 803:1 831:1 918:1 932:1 947:1 986:2 998:1 1001:1 1038:1 1048:1 1095:1 1198:1 1272:1 1487:1 1536:1 1606:1 1665:1 1730:1 1886:1 2022:1 2036:1 2141:2 2374:1 2389:1 2422:1 2506:1 2603:2 2604:2 2638:1 2717:1 2721:1 2740:1 2755:1 2761:4 2763:1 2806:1 2836:1 2842:4 2968:1 3171:1 3303:1 3387:4 3483:1 3509:1 3533:1 3645:1 3725:1 3731:1 3812:1 3818:1 3879:1 3886:3 3955:1 3994:1 3998:1 4032:1 4172:2 4182:1 4319:1 4474:1 4526:1 4534:1 4545:10 4574:3 4594:1 4630:1 4752:2 4799:1 4829:1 4841:1 4867:1 4972:1 5025:2 5031:1 5172:4 5175:1 5183:1 5367:1 5397:1 5476:1 5843:1 5922:1 6034:4 6058:4 6108:1 6188:1 6226:1 6246:1 6257:1 6296:1 6329:1 6333:4 6362:1 6397:1 6401:1 6429:1 6622:1 6635:1 6694:1 6719:1 6722:1 6734:1 6746:1 6758:1 6780:3 6870:1 6940:1 7066:2 7081:1 7084:1 7119:2 7157:1 7237:9 7275:1 7567:1 7655:1 7676:1 7720:1 7724:1 7815:8 7821:1 7869:1 7885:1 
0 1.843167724467541 0 0.938808917813579 35:1 37:1 44:1 191:1 214:2 246:1 303:1 359:1 384:1 541:2 625:1 629:1 637:3 688:1 744:1 813:1 1037:1 1050:1 1120:1 1162:1 1297:2 1407:1 1427:1 1428:1 1472:1 1492:1 1525:1 1555:1 1566:1 1568:1 1603:4 1609:1 1613:1 1706:1 1726:1 1883:1 1890:1 1969:1 2135:1 2141:1 2142:1 2264:1 2291:2 2374:1 2400:1 2443:1 2498:1 2590:1 2600:2 2670:1 2675:1 2742:1 2746:1 2773:1 2806:2 3045:1 3101:1 3104:1 3134:1 3183:1 3244:1 3285:1 3539:2 3552:1 3567:1 3585:1 3683:1 3759:1 3818:1 3885:1 3931:1 4002:1 4009:1 4010:1 4032:1 4086:1 4120:1 4182:2 4195:1 4404:2 4458:2 4478:1 4540:2 4543:2 4545:3 4549:1 4576:1 4597:1 4661:2 4756:1 4791:1 4811:1 4818:1 4841:3 4864:6 4879:1 5030:1 5115:2 5119:3 5131:1 5175:2 5218:2 5253:1 5367:1 5420:1 5430:2 5624:1 5683:1 5780:1 5976:1 6139:1 6158:1 6170:2 6173:1 6192:2 6281:1 6288:1 6436:1 6446:1 6455:1 6468:1 6544:2 6547:1 6719:1 6747:1 6780:1 6856:1 6876:1 6917:2 7008:1 7043:1 7044:2 7054:2 7069:1 7074:1 7085:1 7118:2 7152:1 7174:1 7251:1 7273:1 7292:1 7299:1 7505:2 7571:1 7587:2 7588:2 7639:1 7648:1 7777:1 7792:1 7811:1 7815:2 7877:2 7882:2 
0 0 0 0.380825160401114 3:1 44:1 70:1 76:1 97:1 101:1 117:1 139:1 209:1 210:1 214:2 215:1 224:1 227:3 232:1 247:1 249:1 252:2 289:1 327:1 338:1 351:1 355:1 375:1 381:3 387:5 497:1 513:2 590:1 630:1 646:1 651:1 766:1 793:5 862:4 867:1 876:1 929:1 941:1 1001:6 1014:1 1026:1 1064:2 1107:1 1117:1 1120:1 1134:1 1146:3 1166:1 1181:1 1195:2 1198:1 1241:1 1247:2 1297:1 1344:1 1364:1 1381:1 1383:1 1401:1 1406:1 1410:2 1438:1 1491:2 1511:1 1516:1 1574:1 1605:1 1609:1 1659:1 1666:1 1683:1 1727:1 1730:1 1736:1 1797:2 1824:2 1868:2 1886:1 1907:1 1930:1 1959:1 1982:1 1999:1 2021:1 2036:2 2074:1 2075:1 2088:1 2127:1 2141:3 2150:1 2174:1 2195:1 2214:1 2258:1 2261:1 2339:1 2345:1 2374:1 2375:4 2378:1 2390:1 2417:1 2418:1 2422:1 2464:1 2480:1 2497:3 2507:1 2519:1 2553:2 2590:1 2613:1 2674:1 2675:1 2688:1 2703:1 2740:1 2755:1 2771:1 2787:2 2790:1 2847:1 2859:1 2862:1 2878:1 2890:1 2914:2 2923:1 3009:1 3010:1 3022:1 3114:3 3116:1 3127:1 3187:1 3193:1 3195:2 3204:1 3205:2 3253:1 3387:2 3408:1 3413:4 3462:1 3517:1 3531:1 3549:1 3556:2 3560:1 3576:1 3581:1 3604:1 3614:1 3652:1 3713:1 3759:1 3818:1 3822:4 3879:1 3910:1 3913:1 3945:1 3955:1 3964:2 3974:1 3988:1 4028:1 4031:1 4066:2 4084:1 4120:1 4152:1 4159:1 4181:1 4243:1 4246:1 4253:1 4279:1 4282:1 4284:1 4386:1 4411:1 4456:2 4458:1 4474:1 4528:2 4540:1 4549:3 4574:1 4594:1 4603:1 4617:1 4628:2 4661:1 4700:1 4752:1 4758:3 4780:1 4829:4 4865:1 4869:1 4879:1 4892:1 4907:1 4970:10 4971:2 5012:2 5042:1 5062:2 5086:1 5113:1 5137:1 5166:2 5172:14 5173:5 5183:7 5215:1 5218:1 5227:1 5250:1 5299:1 5304:3 5340:1 5362:1 5368:1 5373:1 5397:4 5420:1 5433:1 5505:1 5619:3 5692:1 5732:2 5755:1 5761:1 5805:1 5855:1 5916:3 6034:1 6108:1 6171:1 6192:2 6251:2 6252:1 6269:1 6281:1 6329:3 6331:1 6333:4 6350:1 6351:1 6357:1 6412:1 6436:1 6455:1 6459:1 6472:3 6564:1 6591:1 6611:1 6656:1 6734:1 6766:1 6787:1 6810:1 6828:1 6850:1 6939:1 6940:1 6968:1 6984:1 7044:1 7049:1 7067:1 7079:1 7087:1 7090:1 7136:1 7157:2 7158:1 7161:1 7184:1 7186:1 7194:1 7224:1 7299:3 7313:1 7322:2 7373:1 7374:1 7415:1 7422:1 7459:1 7481:2 7497:3 7505:1 7538:2 7567:2 7568:1 7632:8 7639:1 7640:1 7676:1 7720:1 7742:1 7762:2 7766:1 7793:1 7802:1 7804:1 7815:2 7825:1 7869:2 
4.057256377961784 1.351826339876757 0.4680047059763025 1.476282072634319 73:3 105:2 133:2 207:1 214:2 224:1 246:2 247:1 270:1 290:3 375:1 457:4 483:3 495:1 532:2 555:2 627:2 638:1 688:1 694:1 700:1 702:2 704:1 724:1 837:1 854:1 876:1 885:2 928:1 974:2 989:1 1010:1 1071:1 1089:1 1095:1 1103:3 1120:2 1135:1 1146:1 1147:3 1198:1 1208:1 1242:1 1331:1 1366:3 1369:1 1379:1 1406:1 1500:1 1508:1 1510:1 1539:1 1551:1 1578:1 1599:1 1609:1 1693:1 1735:1 1763:1 1860:1 1884:1 1920:1 1932:1 2141:1 2181:1 2234:1 2264:1 2282:1 2298:1 2321:3 2328:1 2338:1 2345:2 2383:1 2387:1 2400:1 2405:1 2446:1 2478:1 2497:1 2526:1 2603:2 2611:1 2613:3 2747:2 2787:1 2827:4 2848:1 2900:1 2916:1 2957:2 3183:3 3193:1 3245:1 3247:2 3282:1 3303:1 3407:1 3433:1 3534:1 3581:1 3582:1 3591:1 3731:2 3850:1 3884:1 3885:2 3886:2 3931:1 3992:1 3993:1 3998:1 4031:1 4032:1 4039:1 4061:1 4080:1 4086:2 4130:1 4148:1 4150:1 4194:1 4214:1 4241:1 4291:1 4324:1 4349:7 4377:1 4458:1 4478:1 4528:8 4538:1 4545:3 4652:3 4653:1 4661:6 4686:1 4737:2 4752:4 4785:1 4805:2 4811:2 4818:1 4837:1 4853:1 4869:3 4948:2 5042:1 5101:4 5105:3 5115:1 5119:1 5182:1 5229:1 5287:2 5357:1 5358:1 5420:1 5469:1 5501:1 5584:1 5592:1 5603:1 5606:4 5620:2 5633:1 5668:1 5705:1 5776:5 5805:1 5831:1 5844:1 5855:1 5857:1 5865:1 5894:1 5931:1 6000:4 6034:4 6139:1 6170:5 6192:1 6194:1 6236:1 6246:4 6247:1 6262:1 6264:1 6333:13 6399:4 6456:1 6502:1 6520:1 6574:1 6598:1 6732:2 6770:2 6806:3 6815:1 6876:1 6939:1 6975:3 7000:1 7001:6 7002:1 7044:2 7056:1 7069:1 7085:1 7119:4 7143:1 7157:1 7160:1 7208:1 7234:1 7269:1 7305:1 7313:1 7322:1 7498:1 7560:2 7568:3 7569:2 7639:2 7659:1 7679:2 7709:1 7720:2 7724:1 7757:1 7766:2 7813:1 7869:4 
5.953341823064871 10.38233426785333 9.705850612424921 3.388344279196724 49:1 53:1 207:1 209:1 218:1 381:2 387:1 416:1 592:2 688:1 729:2 769:1 816:1 884:1 893:1 1010:1 1026:1 1117:1 1228:1 1274:1 1370:1 1406:1 1432:1 1458:1 1488:1 1681:1 1693:1 1883:1 1947:1 1997:1 1998:1 2181:1 2218:1 2241:1 2244:1 2255:1 2285:1 2390:1 2418:1 2433:1 2448:1 2607:1 2676:1 2707:1 2719:1 2746:1 2784:1 2820:1 2836:1 3201:1 3245:1 3369:1 3409:1 3433:1 3528:1 3531:1 3576:1 3796:1 3847:1 3884:1 3887:1 3935:1 4010:1 4060:1 4070:1 4130:1 4159:1 4222:1 4243:1 4299:1 4365:1 4426:1 4430:1 4459:1 4474:1 4545:1 4549:1 4775:1 4803:1 4829:1 4841:1 4861:1 4879:1 4937:1 4999:1 5113:1 5115:1 5172:1 5184:2 5218:1 5220:1 5226:1 5287:1 5340:1 5614:1 5631:1 5677:1 5678:1 5750:1 5803:1 5806:1 5824:1 5891:1 5922:1 5976:1 5994:1 6158:1 6171:1 6204:1 6224:2 6264:1 6307:1 6333:2 6339:1 6455:4 6507:1 6519:1 6771:1 7047:1 7065:1 7132:1 7213:1 7215:1 7222:2 7232:1 7285:1 7567:1 7649:2 7700:1 7754:1 7762:1 7815:1 7831:1 
0 0 0 2.302506380404954 17:1 31:2 48:1 58:1 65:2 70:2 95:1 102:1 213:1 214:3 225:4 233:1 239:1 246:1 247:1 278:1 375:1 381:2 416:1 434:1 483:1 508:2 583:1 590:1 616:1 622:1 655:2 702:3 724:3 756:1 813:1 828:1 929:1 1010:3 1028:1 1076:1 1089:2 1099:1 1142:2 1153:1 1208:1 1215:1 1235:1 1301:1 1355:1 1362:3 1364:1 1395:3 1398:1 1442:1 1461:1 1578:2 1601:2 1609:1 1615:1 1658:2 1682:1 1693:1 1787:1 1809:3 1855:1 1879:2 1907:2 1909:1 1930:1 2026:1 2029:1 2033:1 2063:1 2067:2 2152:1 2205:1 2207:1 2233:1 2264:2 2274:1 2276:2 2285:2 2286:2 2345:1 2352:1 2366:1 2374:1 2379:1 2387:1 2396:1 2404:2 2405:1 2429:2 2433:1 2443:2 2467:1 2476:1 2501:2 2505:6 2534:1 2553:2 2590:1 2593:1 2603:1 2605:1 2613:3 2620:1 2628:1 2682:1 2710:3 2732:1 2733:1 2740:1 2744:1 2801:1 2811:1 2839:23 2872:1 2916:1 2935:1 2938:2 2957:2 2979:1 3001:1 3009:1 3125:1 3126:1 3171:1 3182:1 3201:1 3226:1 3242:1 3279:1 3301:3 3318:3 3332:1 3354:1 3392:1 3407:1 3412:1 3476:1 3528:1 3534:1 3565:1 3587:1 3614:1 3666:1 3731:5 3763:1 3792:1 3801:3 3816:2 3818:1 3849:1 3917:1 3925:1 3964:2 3998:6 4010:1 4038:2 4040:1 4047:1 4060:2 4066:3 4086:1 4130:1 4138:2 4151:2 4159:3 4173:1 4225:1 4234:1 4241:1 4249:1 4251:1 4280:1 4329:1 4335:1 4346:1 4406:1 4426:1 4447:1 4545:6 4557:2 4597:1 4661:1 4740:1 4752:2 4803:1 4813:1 4829:4 4834:3 4869:2 4918:1 4948:1 4961:1 5101:2 5116:1 5131:1 5209:1 5215:1 5218:12 5220:1 5231:6 5235:1 5237:1 5240:1 5257:1 5266:1 5295:1 5304:2 5329:1 5334:1 5362:1 5378:3 5424:2 5446:1 5462:1 5472:2 5494:1 5511:1 5515:1 5528:1 5540:2 5541:1 5552:1 5601:1 5606:1 5607:1 5629:3 5630:1 5633:1 5657:15 5667:1 5678:2 5715:1 5724:1 5764:1 5784:1 5798:1 5800:1 5839:1 5844:1 5866:2 5894:1 5926:1 5927:1 5939:1 5941:9 5981:1 6033:3 6034:3 6095:1 6115:8 6176:1 6187:3 6194:1 6224:1 6246:2 6248:1 6249:1 6257:1 6274:1 6308:1 6323:2 6330:2 6333:1 6351:1 6362:1 6383:1 6384:2 6387:1 6391:5 6420:4 6490:1 6497:1 6505:1 6519:1 6540:1 6556:2 6569:1 6579:1 6580:2 6622:1 6652:1 6656:2 6679:1 6694:2 6760:1 6770:3 6780:2 6857:1 6861:4 6910:2 6922:2 6933:1 6939:3 6946:1 6980:3 6987:1 7067:1 7074:1 7081:3 7110:1 7119:6 7128:1 7130:1 7160:3 7184:1 7221:1 7227:1 7232:1 7233:1 7257:1 7279:1 7358:1 7363:1 7373:1 7481:1 7509:1 7516:2 7538:1 7560:2 7602:1 7605:1 7655:1 7659:3 7661:3 7672:1 7677:1 7679:1 7720:1 7736:1 7766:1 7778:1 7793:1 7796:2 7815:2 7821:6 7848:2 7860:3 7867:1 7868:1 7869:1 7871:1 7877:3 7915:1 
2.172467686045738 3.29623827424988 3.362870427477019 0 44:1 64:1 97:1 102:1 168:1 204:1 209:1 214:1 215:1 224:1 290:1 319:2 492:1 508:3 627:1 846:1 867:2 903:1 977:1 989:2 992:1 998:1 1010:1 1107:1 1124:1 1164:1 1195:1 1299:1 1337:1 1387:1 1412:1 1458:1 1609:1 1629:1 1709:1 1730:1 1850:1 1860:1 1867:1 1890:1 1947:1 1955:1 2071:1 2141:1 2239:2 2259:1 2374:2 2381:1 2390:1 2408:1 2419:1 2444:1 2525:1 2533:1 2541:1 2553:2 2568:1 2606:1 2682:2 2752:1 2957:1 3020:1 3039:1 3075:1 3226:1 3388:1 3509:1 3534:2 3550:1 3658:1 3731:1 3768:1 3847:1 3922:1 3931:1 3998:1 4084:1 4086:7 4118:2 4130:1 4172:1 4181:1 4241:1 4244:1 4301:1 4341:1 4415:1 4474:1 4545:6 4549:1 4568:1 4576:2 4661:2 4791:1 4829:2 4869:1 5010:1 5030:1 5033:1 5063:1 5115:1 5178:1 5218:2 5263:1 5291:4 5548:1 5692:1 5844:1 5894:1 5927:1 5947:1 5958:1 6019:1 6051:1 6092:1 6210:1 6226:1 6227:1 6239:1 6257:2 6267:1 6333:1 6374:7 6387:1 6439:1 6448:1 6455:1 6471:1 6505:1 6526:6 6534:1 6599:1 6635:1 6682:1 6699:1 6712:1 6734:1 6763:1 6820:1 6822:2 6871:1 7013:1 7022:1 7044:1 7054:1 7066:2 7067:1 7084:1 7088:1 7119:1 7166:1 7264:1 7288:1 7313:1 7538:1 7593:1 7616:1 7639:1 7681:1 7724:1 7754:1 7793:1 
0.412848349699203 1.756301212329196 0 1.444893822681923 29:1 204:1 233:1 246:1 269:1 314:1 341:1 379:1 404:1 447:1 457:1 497:1 571:1 629:1 630:1 655:1 659:1 702:1 724:1 764:1 772:1 775:1 822:1 892:1 899:1 974:1 989:1 1010:2 1047:1 1048:1 1079:2 1147:1 1153:1 1172:2 1247:2 1313:2 1346:6 1364:1 1366:3 1406:1 1410:1 1519:2 1533:1 1609:1 1612:1 1625:1 1748:2 1799:1 1835:2 1852:1 1901:4 1907:1 1930:1 1932:1 1944:1 2033:2 2036:1 2070:1 2076:1 2115:3 2145:1 2195:1 2264:2 2321:1 2352:1 2374:2 2381:1 2385:1 2408:1 2413:2 2433:2 2442:1 2469:1 2490:1 2494:1 2501:1 2523:1 2553:2 2560:2 2576:1 2590:2 2596:2 2613:1 2682:1 2740:1 2764:1 2772:1 2787:2 2789:1 2820:5 2859:1 2878:1 2900:3 2914:8 2916:1 2938:3 2966:1 2968:2 2983:2 3012:1 3022:1 3040:1 3067:1 3094:1 3125:1 3163:1 3170:3 3184:1 3207:1 3226:1 3318:1 3329:1 3407:1 3509:1 3590:1 3622:1 3689:1 3711:2 3731:1 3815:1 3816:5 3852:1 3856:1 3868:1 3879:1 3884:2 3894:1 3988:1 3998:11 4025:1 4031:1 4032:1 4047:1 4086:2 4114:1 4120:6 4127:1 4130:2 4159:5 4181:1 4279:1 4324:1 4479:1 4496:1 4541:4 4549:2 4597:1 4617:1 4637:1 4653:2 4661:4 4752:1 4800:1 4849:1 5101:2 5113:1 5117:1 5127:1 5131:1 5197:2 5218:3 5240:1 5303:1 5304:3 5316:1 5352:2 5415:1 5417:1 5420:3 5547:1 5576:1 5619:2 5624:3 5632:1 5633:5 5649:2 5732:1 5820:1 5822:1 5894:1 5958:1 5986:1 6033:2 6034:3 6091:2 6123:1 6149:1 6152:1 6155:1 6170:1 6193:1 6194:2 6224:1 6229:1 6236:1 6246:3 6251:1 6266:3 6317:1 6329:1 6333:6 6336:1 6384:1 6518:1 6540:1 6548:2 6552:2 6591:1 6594:1 6620:1 6652:3 6712:1 6772:2 6828:1 6832:1 6857:1 6939:2 6946:3 6957:2 7001:3 7066:2 7067:1 7119:3 7126:5 7175:1 7280:1 7305:2 7313:1 7345:1 7467:1 7474:1 7481:2 7516:2 7560:1 7639:2 7655:1 7659:3 7677:1 7679:2 7686:1 7708:1 7717:1 7749:1 7766:2 7769:2 7801:1 7802:4 7815:2 7821:1 7845:1 7849:1 7869:1 7882:1 7885:2 7888:1 
21.60756745695748 20.98847287836355 30.76826925319024 12.94897645702734 77:1 105:1 133:1 246:1 508:1 858:1 876:1 885:1 998:1 1010:1 1153:1 1306:1 1366:1 1997:1 2150:1 2264:1 2298:1 2490:1 2638:1 2682:1 2747:2 2779:1 2826:1 2862:1 2914:2 2926:3 2983:1 3126:1 3195:1 3226:1 3279:2 3593:1 3614:1 3884:1 4031:2 4159:1 4478:1 4496:1 4539:2 4653:1 4661:4 4671:2 4686:1 4752:1 4865:1 5220:1 5287:1 5357:1 5370:1 5420:1 5576:2 5633:1 5649:1 6034:1 6111:1 6123:1 6152:1 6170:5 6246:1 6257:1 6283:1 6333:2 6445:1 6652:1 6661:1 7081:2 7119:1 7288:1 7568:1 7720:1 7846:1 
3.966961707875487 2.456709197281408 6.952592234906227 1.408853269637469 18:1 58:2 73:2 125:1 126:1 139:1 140:1 150:1 177:5 207:1 210:1 214:1 238:1 239:3 247:1 261:1 281:2 290:1 303:2 313:1 327:1 368:1 379:1 381:1 385:2 400:2 416:2 454:2 487:1 551:1 692:1 728:1 797:2 808:1 813:1 816:1 818:3 835:6 854:1 876:1 884:1 893:1 905:1 928:1 1004:1 1037:1 1062:1 1078:1 1081:1 1091:1 1120:3 1215:2 1232:2 1252:1 1276:2 1286:1 1301:1 1331:1 1340:1 1344:3 1355:1 1376:1 1458:2 1471:1 1488:1 1514:1 1554:1 1571:1 1584:1 1587:1 1611:1 1665:3 1715:1 1730:1 1736:4 1750:1 1763:1 1803:1 1807:1 1832:1 1850:1 1852:1 1858:6 1909:1 1951:2 1960:1 1979:1 1995:1 2021:2 2029:1 2033:1 2035:1 2138:1 2141:2 2163:1 2279:1 2289:1 2345:1 2353:1 2355:1 2433:1 2438:1 2472:1 2484:2 2497:4 2512:1 2588:1 2592:1 2603:1 2607:1 2698:3 2732:2 2740:1 2763:1 2771:2 2772:1 2778:1 2805:1 2820:1 2826:1 2866:1 2868:2 2871:2 2890:2 2900:2 2906:1 2938:1 2947:1 3009:3 3015:1 3064:1 3201:3 3244:5 3245:1 3273:1 3279:1 3303:3 3309:4 3362:1 3387:1 3404:1 3433:2 3438:1 3441:1 3536:2 3560:1 3628:1 3638:1 3650:1 3692:1 3749:1 3773:1 3796:1 3806:1 3816:2 3818:2 3849:2 3879:1 3884:2 3886:2 3912:1 3926:1 3932:1 3961:5 3978:1 3988:2 3998:1 4025:1 4060:1 4080:1 4130:1 4148:1 4156:1 4159:1 4181:1 4182:1 4206:1 4225:1 4243:2 4244:1 4258:1 4282:1 4322:1 4329:1 4360:1 4374:1 4395:1 4401:2 4423:3 4424:3 4439:1 4526:1 4528:1 4536:1 4545:8 4574:2 4614:1 4628:1 4640:1 4659:1 4661:3 4667:1 4671:1 4727:1 4752:1 4772:5 4791:1 4803:2 4805:1 4815:1 4818:2 4829:3 4841:2 4850:1 4907:1 4949:1 4961:1 4965:1 4967:1 4999:2 5014:1 5025:1 5042:1 5101:1 5162:1 5171:1 5172:1 5183:1 5220:1 5253:1 5265:1 5368:1 5370:4 5371:1 5383:1 5386:1 5388:3 5427:1 5494:1 5506:1 5550:1 5590:1 5607:1 5616:1 5633:2 5649:1 5660:1 5667:1 5734:1 5750:1 5787:2 5805:3 5806:1 5850:1 5859:1 5864:1 6000:1 6033:1 6034:9 6041:3 6086:1 6120:1 6121:1 6122:1 6149:1 6158:1 6166:1 6173:1 6177:1 6187:1 6206:1 6278:1 6330:1 6333:1 6351:1 6366:1 6383:1 6408:1 6426:4 6470:1 6487:5 6502:1 6531:1 6548:1 6551:1 6570:1 6576:1 6580:1 6581:1 6600:1 6661:1 6665:1 6694:1 6712:1 6724:1 6725:1 6820:2 6871:1 6876:1 6946:1 6973:1 6989:1 7002:1 7044:3 7074:1 7076:1 7094:1 7098:1 7134:1 7139:2 7152:1 7158:1 7160:1 7223:1 7261:2 7299:1 7313:3 7344:1 7448:1 7481:2 7489:1 7509:1 7552:1 7567:1 7591:1 7659:1 7660:5 7676:1 7694:1 7700:1 7707:5 7708:1 7734:1 7742:1 7748:1 7751:2 7757:1 7766:3 7768:1 7769:1 7807:1 7809:1 7815:3 7838:1 7847:1 7849:5 7869:2 7882:1 
0 0 0 0.6097765554488461 66:1 100:1 177:7 213:2 314:1 381:1 476:5 493:1 508:2 543:1 551:2 593:1 627:1 629:1 639:1 739:1 881:1 998:1 1010:2 1083:1 1087:1 1120:1 1146:1 1255:2 1276:1 1306:1 1411:1 1418:5 1425:1 1427:3 1463:1 1476:1 1659:1 1675:2 1693:1 1694:1 1730:1 1750:1 1806:1 1930:1 2033:1 2036:1 2088:6 2089:1 2174:1 2191:3 2205:1 2264:1 2290:1 2313:1 2365:1 2379:2 2395:1 2448:1 2464:1 2475:1 2507:1 2541:1 2550:1 2593:1 2598:1 2603:1 2613:1 2669:1 2682:1 2758:1 2792:1 2793:1 2872:1 2923:1 2938:1 2944:1 3114:1 3194:1 3195:2 3237:1 3238:1 3247:1 3278:1 3387:1 3396:1 3406:1 3408:1 3483:1 3531:1 3539:1 3563:1 3731:4 3773:1 3778:2 3835:12 3911:1 3981:1 4010:2 4014:1 4032:3 4066:1 4086:1 4118:4 4123:1 4172:1 4284:1 4291:1 4311:1 4316:1 4334:1 4386:1 4411:1 4426:1 4436:1 4456:1 4458:2 4512:1 4545:3 4574:2 4576:5 4577:1 4597:1 4686:2 4741:1 4752:3 4757:1 4791:1 4818:1 4829:2 4836:1 4869:2 4955:1 5035:1 5101:1 5103:1 5115:1 5134:1 5218:5 5221:1 5225:1 5227:1 5281:3 5326:1 5342:1 5346:1 5413:1 5430:1 5452:1 5501:1 5536:1 5564:2 5607:1 5619:2 5675:1 5734:2 5750:1 5776:1 5793:1 5843:2 5858:1 5867:1 5925:2 5927:1 6065:2 6084:1 6108:1 6119:1 6149:2 6246:2 6333:2 6384:1 6391:1 6505:1 6519:1 6520:1 6526:8 6540:1 6544:1 6626:1 6656:2 6660:1 6670:1 6708:1 6787:1 6989:2 7068:1 7074:1 7081:2 7118:1 7119:1 7160:1 7179:1 7190:3 7194:1 7213:1 7220:1 7269:1 7288:4 7292:2 7307:1 7322:1 7453:1 7509:1 7533:1 7538:1 7546:1 7560:1 7615:2 7619:1 7639:2 7648:1 7659:1 7809:1 7821:4 7845:1 7877:1 
1.812969430382315 2.592505203358932 3.844313489752556 1.286022865857598 22:1 63:1 154:1 214:1 279:1 290:2 327:1 374:2 396:1 449:1 508:1 646:1 729:1 775:4 778:2 798:1 903:1 929:1 967:1 1079:1 1155:1 1218:1 1237:1 1381:1 1389:1 1395:1 1413:1 1472:1 1488:1 1500:1 1561:1 1596:1 1683:1 1707:4 1708:4 1853:1 1856:1 1907:1 1920:1 1925:1 2026:1 2107:3 2135:1 2142:1 2161:1 2264:1 2418:1 2448:1 2490:3 2554:1 2559:1 2600:1 2603:1 2621:2 2654:1 2719:1 2900:1 2938:1 2968:1 2986:1 3042:1 3088:1 3114:1 3119:1 3156:1 3201:1 3237:1 3238:1 3279:1 3531:1 3546:1 3616:1 3662:1 3693:1 3705:1 3723:2 3751:1 3756:1 3759:1 3899:1 3935:2 3958:1 3964:1 3994:1 3998:2 4016:1 4031:4 4061:1 4066:2 4079:1 4120:1 4249:2 4258:1 4324:1 4386:1 4426:1 4474:1 4545:3 4549:1 4576:1 4605:1 4628:1 4661:2 4671:1 4811:1 4829:4 4841:1 4869:1 4877:1 5042:1 5115:1 5184:2 5379:1 5430:3 5518:1 5536:1 5590:1 5656:1 5675:1 5677:1 5781:1 5816:1 5844:1 5854:1 5872:1 5873:1 5942:1 5969:1 6034:1 6139:1 6192:1 6269:1 6351:1 6371:1 6412:1 6418:4 6429:1 6485:1 6498:1 6519:1 6544:2 6590:1 6656:1 6694:2 6699:1 6738:1 6739:2 6759:1 6782:1 6903:1 6908:1 6965:1 7009:2 7053:1 7066:1 7081:1 7094:1 7313:4 7433:1 7505:1 7602:1 7616:1 7649:1 7659:1 7718:1 7744:1 7754:1 7792:1 7802:1 7804:1 7815:4 7865:1 7869:1 7871:1 7877:1 7885:1 
2.50069569150221 2.225356478102316 5.316149118546737 2.484148793015891 47:1 69:1 116:1 154:1 214:1 215:1 218:1 238:2 290:2 339:1 341:1 375:1 381:1 403:1 411:1 422:1 508:1 536:1 618:1 627:1 629:1 638:1 666:1 674:1 692:1 801:1 876:1 899:1 903:1 929:1 998:1 1038:1 1079:1 1119:1 1120:2 1263:1 1264:4 1296:1 1297:2 1299:1 1318:1 1331:1 1346:1 1354:1 1383:1 1395:5 1398:1 1406:1 1407:1 1458:1 1477:1 1512:1 1571:2 1640:1 1659:2 1693:4 1707:13 1708:4 1768:1 1795:1 1835:1 1848:1 1886:1 1907:1 1949:1 2041:1 2088:1 2132:1 2153:1 2191:1 2207:2 2291:1 2300:1 2342:1 2349:1 2352:1 2379:1 2422:1 2451:1 2454:1 2507:1 2542:1 2543:1 2553:1 2561:1 2576:1 2579:1 2586:1 2602:1 2613:1 2632:1 2662:2 2680:1 2682:1 2705:1 2710:1 2719:5 2740:1 2744:2 2857:1 2878:1 2917:1 2938:2 2942:1 2988:1 3232:1 3245:1 3263:1 3275:1 3279:1 3301:2 3310:2 3337:1 3366:1 3433:1 3452:6 3453:3 3465:1 3471:1 3592:1 3594:1 3704:1 3705:3 3759:1 3818:2 3879:1 3884:1 3887:1 3923:1 3925:1 3935:1 3938:1 3939:1 3994:1 4003:1 4032:1 4060:1 4075:1 4086:1 4127:1 4130:1 4159:1 4206:1 4361:1 4485:1 4504:1 4512:1 4540:1 4549:1 4577:2 4589:1 4597:2 4661:1 4686:1 4716:1 4752:2 4753:1 4754:9 4781:1 4801:4 4803:1 4806:1 4829:4 4841:1 4861:1 5025:1 5029:1 5101:1 5115:1 5122:1 5131:1 5168:1 5215:2 5253:1 5267:1 5362:1 5370:1 5384:1 5435:1 5442:1 5461:1 5512:1 5666:1 5718:1 5746:1 5750:2 5831:1 5850:1 5918:3 5976:1 6000:1 6123:1 6158:1 6170:1 6171:1 6264:1 6361:1 6379:1 6384:1 6402:1 6485:1 6552:1 6581:1 6612:1 6637:1 6660:3 6709:1 6770:2 6872:2 6946:1 7003:1 7007:1 7049:1 7074:2 7075:1 7081:1 7084:1 7119:1 7135:1 7179:3 7224:1 7232:1 7270:1 7278:1 7288:1 7415:1 7448:1 7481:1 7485:1 7516:1 7518:1 7576:7 7593:1 7603:2 7610:2 7630:1 7708:1 7720:2 7728:2 7766:1 7778:1 7789:1 7793:1 7815:1 7819:1 7822:1 7846:1 7855:1 7869:1 7882:1 
1.225908709077224 0 0.859151590481215 0.1710394962435473 58:2 59:1 82:1 102:1 123:1 125:2 140:1 141:1 213:1 214:1 238:2 285:1 354:1 372:1 381:15 387:2 389:2 397:3 404:1 413:1 556:1 558:1 582:1 584:3 614:1 629:2 639:2 688:1 694:2 702:1 704:1 842:1 876:1 989:2 995:1 1125:1 1137:1 1194:1 1215:1 1263:1 1344:1 1364:1 1384:1 1443:1 1470:1 1491:2 1571:1 1638:1 1659:3 1665:6 1666:1 1675:1 1757:1 1832:1 1932:1 1951:1 1962:1 2153:2 2177:1 2183:1 2225:1 2234:1 2310:1 2379:1 2407:1 2413:1 2418:5 2436:1 2484:1 2498:2 2583:1 2590:1 2600:1 2601:1 2613:2 2620:1 2621:1 2674:3 2741:2 2884:1 2930:2 3066:12 3201:1 3230:1 3245:1 3274:1 3279:1 3362:1 3433:2 3439:1 3452:1 3461:1 3500:4 3536:3 3556:1 3587:1 3591:1 3796:1 3826:1 3881:1 3889:2 3998:3 4032:1 4060:1 4066:1 4120:2 4130:1 4162:1 4173:1 4192:1 4208:1 4363:1 4377:2 4406:1 4458:1 4479:1 4496:1 4549:1 4574:4 4584:1 4661:6 4671:1 4724:2 4806:3 4834:1 4841:2 4867:2 4925:1 4966:1 4973:1 5025:1 5067:1 5101:2 5113:1 5122:1 5157:2 5164:1 5215:1 5326:1 5426:1 5430:4 5432:1 5433:7 5492:1 5515:2 5590:1 5620:2 5649:2 5692:1 5709:2 5810:2 5879:1 6034:3 6111:1 6173:1 6192:1 6203:2 6224:1 6246:1 6333:1 6358:1 6388:5 6402:1 6548:3 6550:3 6569:1 6572:1 6656:1 6726:1 6852:1 6856:2 6905:1 6907:1 6939:2 6940:1 6943:1 6980:1 7046:1 7054:1 7068:1 7139:1 7224:1 7313:2 7323:8 7529:1 7564:1 7567:1 7639:1 7691:1 7720:1 7730:2 7766:10 7783:1 7815:6 7821:3 7869:3 7882:5 
3.506593294716895 0 1.997907805177998 0 42:1 73:1 100:1 127:1 177:3 209:1 214:1 220:1 285:1 375:1 410:1 414:1 442:1 508:1 513:1 551:3 553:2 593:1 638:2 706:1 724:1 763:1 808:1 822:1 836:1 875:1 901:1 931:1 989:2 998:1 1048:1 1117:1 1122:1 1148:1 1298:1 1330:1 1407:1 1412:2 1432:1 1468:1 1510:1 1524:1 1547:1 1621:1 1631:1 1638:2 1653:3 1659:2 1748:1 1907:1 1930:1 1995:1 2097:1 2141:1 2230:1 2276:1 2291:1 2352:1 2541:4 2553:1 2613:3 2648:1 2729:1 2824:1 2916:1 2957:1 2979:1 2982:1 3039:1 3042:1 3045:1 3065:1 3101:1 3134:1 3145:2 3201:1 3263:2 3417:1 3508:1 3571:1 3605:1 3622:1 3657:3 3796:1 3886:1 3931:1 4010:1 4054:1 4070:1 4080:2 4130:2 4159:1 4216:1 4220:3 4243:1 4311:1 4312:1 4352:1 4365:1 4416:1 4426:1 4474:1 4539:1 4545:16 4568:1 4576:2 4577:1 4639:1 4661:3 4673:3 4686:1 4737:1 4770:1 4841:2 4846:1 5042:1 5083:1 5115:1 5157:1 5178:1 5179:1 5218:1 5231:1 5499:1 5502:1 5545:1 5551:3 5606:1 5610:1 5620:1 5649:1 5667:1 5696:1 5743:2 5755:1 5816:1 5823:1 5844:1 5873:1 5895:1 5937:4 5976:1 5987:3 6092:2 6181:1 6192:1 6257:2 6287:1 6304:1 6326:1 6371:1 6440:1 6507:1 6519:1 6526:1 6535:1 6536:1 6544:1 6577:1 6647:2 6656:1 6820:1 6828:2 6844:1 6902:1 6946:1 7008:1 7021:1 7026:1 7029:10 7074:1 7110:1 7135:1 7205:1 7273:1 7292:3 7391:1 7600:1 7687:1 7705:2 7708:1 7777:1 7815:1 7845:1 7869:2 7882:3 
10.0331964338917 6.393391704604531 13.4529016210272 2.089108363911886 47:1 53:1 70:1 208:1 224:1 239:1 285:1 326:1 338:1 419:1 489:1 490:1 602:1 606:1 629:1 637:2 656:5 688:1 836:1 867:1 876:1 1010:1 1032:1 1125:1 1134:1 1428:2 1438:2 1508:1 1748:1 1813:1 1890:1 1907:1 1932:2 2070:1 2089:1 2135:1 2259:2 2274:1 2289:1 2291:3 2322:1 2348:1 2374:2 2405:1 2407:1 2429:1 2586:1 2587:1 2616:1 2746:1 2806:1 2900:1 2917:1 3104:1 3114:1 3134:1 3171:1 3183:1 3217:1 3432:1 3534:1 3552:1 3567:1 3585:1 3713:1 3816:1 3868:1 3884:1 3912:1 3931:2 3960:2 3997:1 3998:1 4010:1 4023:1 4031:1 4057:1 4141:1 4148:1 4158:1 4241:1 4322:1 4386:1 4540:1 4543:2 4545:5 4549:1 4576:1 4737:1 4811:1 4841:1 4863:1 4864:4 4941:2 5042:1 5115:1 5218:1 5301:1 5340:1 5367:1 5379:1 5409:1 5528:1 5607:1 5624:1 5636:1 5878:1 6034:1 6192:3 6236:1 6257:1 6336:1 6427:1 6439:1 6508:2 6519:1 6531:1 6544:3 6646:1 6654:1 6691:1 6712:1 6747:1 6868:1 6897:1 6917:5 7020:1 7074:1 7102:1 7152:1 7168:1 7194:1 7197:1 7214:1 7299:2 7459:1 7519:1 7538:1 7587:4 7659:2 7667:1 7705:1 7720:1 7742:1 7815:1 7832:1 
0 0.3179580504176299 0 1.592897240443287 17:1 65:3 70:5 77:1 100:1 102:2 167:1 192:1 201:1 207:2 208:1 211:1 214:3 224:1 244:1 246:2 337:2 368:1 375:1 381:1 445:1 483:1 522:1 582:1 590:1 639:1 660:1 688:1 702:1 714:8 752:1 779:1 875:1 876:1 884:1 989:2 1010:10 1035:1 1152:1 1153:2 1154:2 1208:1 1215:1 1240:1 1281:1 1362:4 1364:1 1372:3 1395:1 1398:1 1400:2 1407:1 1423:1 1424:1 1431:1 1500:1 1511:1 1517:1 1519:1 1578:1 1615:1 1754:1 1757:1 1759:1 1773:1 1809:2 1856:1 1866:1 1875:1 1879:2 1883:1 1890:1 1959:2 1962:1 1997:1 2033:1 2063:1 2074:1 2142:1 2148:1 2181:12 2205:1 2239:2 2243:1 2264:2 2272:2 2285:1 2343:1 2352:1 2360:1 2374:1 2433:1 2443:1 2454:1 2475:1 2491:1 2501:1 2506:1 2507:1 2553:1 2581:1 2596:1 2600:1 2613:3 2732:1 2740:1 2759:1 2780:1 2787:1 2809:1 2826:1 2834:2 2839:19 2857:1 2890:1 2900:2 2916:1 2938:1 3033:1 3078:1 3114:1 3182:1 3201:1 3247:1 3259:1 3301:1 3324:4 3332:1 3387:1 3494:1 3530:1 3548:1 3556:1 3576:1 3581:1 3586:1 3645:1 3723:1 3731:3 3759:1 3786:1 3798:3 3812:1 3816:1 3818:1 3955:1 3960:1 3988:2 3998:3 4025:1 4032:1 4038:1 4060:1 4066:1 4075:1 4081:1 4086:1 4095:1 4130:4 4172:1 4173:1 4182:2 4228:12 4279:2 4288:2 4340:1 4373:1 4437:1 4455:4 4530:1 4549:1 4557:1 4603:2 4661:2 4721:1 4752:1 4803:1 4829:1 4834:1 4849:1 4857:2 4907:1 4967:1 4994:1 5042:1 5116:2 5131:1 5215:1 5218:11 5231:4 5235:1 5253:1 5266:1 5267:1 5367:1 5377:1 5384:1 5438:1 5462:1 5472:1 5494:1 5498:1 5508:1 5541:1 5552:1 5607:1 5619:3 5660:3 5734:1 5763:1 5800:2 5816:1 5819:1 5820:2 5851:1 5865:1 5900:1 5913:1 5925:1 5941:4 5942:1 5958:1 6000:2 6012:1 6033:2 6089:2 6131:1 6147:1 6173:1 6187:1 6239:1 6246:1 6257:1 6281:1 6317:1 6351:1 6372:1 6398:1 6519:1 6540:1 6557:3 6559:1 6566:2 6568:2 6652:1 6656:1 6660:1 6663:1 6676:1 6694:1 6712:5 6715:1 6733:1 6761:2 6780:2 6816:1 6861:2 6906:1 6922:1 6932:1 6939:1 6946:3 7001:1 7002:1 7068:1 7075:1 7079:2 7081:1 7139:1 7195:1 7197:1 7214:1 7240:1 7249:1 7257:1 7280:1 7319:1 7328:1 7373:1 7417:1 7422:1 7481:2 7505:1 7516:2 7538:1 7539:1 7560:3 7605:2 7616:2 7642:1 7659:3 7660:1 7686:1 7708:1 7742:1 7766:2 7778:1 7793:1 7813:1 7843:1 
0 0 0 0.2509449253283853 18:1 19:1 69:1 73:1 96:1 101:1 124:1 145:1 207:1 209:1 214:2 240:2 241:1 246:2 270:2 327:1 355:2 359:1 375:1 379:1 400:1 472:1 493:1 522:1 606:1 624:1 638:1 693:1 705:2 798:1 870:2 884:4 905:2 974:1 978:1 998:1 1000:1 1005:1 1010:2 1117:1 1124:1 1146:2 1147:1 1152:1 1237:1 1247:4 1249:2 1294:1 1318:1 1359:1 1364:2 1366:2 1367:1 1432:1 1448:1 1487:2 1514:1 1587:1 1612:1 1615:1 1631:1 1640:1 1672:1 1675:1 1692:1 1693:3 1735:1 1757:1 1787:2 1879:1 1883:1 1890:1 1901:1 1902:1 1937:1 2063:1 2074:1 2077:1 2078:1 2118:1 2195:1 2233:2 2242:1 2264:2 2274:1 2288:1 2309:1 2321:1 2326:1 2345:1 2374:1 2379:1 2381:1 2393:1 2413:3 2429:1 2433:1 2469:1 2490:1 2553:3 2560:1 2561:3 2600:3 2603:1 2638:1 2682:2 2734:1 2742:1 2787:1 2806:1 2813:1 2827:4 2839:1 2900:2 2914:1 2916:2 2924:17 2938:1 2944:1 2957:1 2968:2 3022:1 3065:2 3067:1 3094:1 3101:1 3114:1 3120:1 3134:1 3138:1 3170:1 3171:1 3186:1 3201:2 3244:1 3259:1 3263:1 3265:1 3358:2 3416:1 3433:2 3465:1 3484:1 3532:1 3639:13 3687:1 3731:1 3796:1 3805:1 3810:1 3812:1 3816:1 3886:2 3988:1 3998:4 4032:3 4039:2 4060:1 4066:2 4086:2 4106:1 4120:35 4130:1 4150:1 4159:2 4172:1 4173:1 4181:1 4284:1 4301:1 4324:1 4349:2 4426:2 4430:1 4479:2 4496:2 4539:1 4549:1 4597:1 4630:1 4631:1 4653:2 4659:1 4661:8 4671:1 4708:1 4737:1 4752:2 4829:2 4834:1 4861:1 4972:1 5025:1 5039:1 5079:1 5134:1 5197:4 5209:2 5218:1 5249:7 5307:1 5316:2 5362:1 5409:1 5412:1 5420:4 5421:1 5424:1 5433:2 5498:1 5508:1 5511:1 5515:1 5528:1 5541:1 5558:1 5576:1 5584:2 5607:1 5619:3 5626:2 5633:1 5649:1 5691:1 5728:1 5730:1 5750:1 5755:1 5805:1 5812:1 5823:2 5890:1 5942:1 6000:1 6034:9 6108:1 6111:2 6149:1 6152:2 6170:1 6192:1 6194:1 6239:1 6246:5 6257:4 6258:1 6262:3 6267:1 6313:1 6316:2 6317:2 6323:1 6329:1 6333:5 6354:1 6358:1 6384:1 6414:1 6519:1 6520:1 6539:1 6542:1 6547:1 6580:1 6581:1 6587:1 6652:2 6656:2 6694:2 6718:2 6734:1 6747:1 6768:1 6769:1 6772:1 6801:1 6831:1 6832:1 6861:1 6939:1 6940:1 6980:1 7049:2 7066:2 7119:2 7172:1 7219:1 7269:1 7279:1 7280:1 7299:2 7305:1 7313:5 7322:2 7329:1 7415:1 7417:1 7433:1 7474:1 7485:1 7498:1 7516:2 7567:1 7576:1 7616:1 7639:1 7644:1 7700:4 7728:2 7742:1 7766:2 7793:3 7802:3 7813:1 7815:5 7845:1 7847:1 7849:1 7851:1 7869:3 7877:1 7882:4 7883:3 7885:2 
1.042189870466252 2.009604266599896 2.815912936736394 0 29:2 46:1 53:1 214:2 257:1 270:1 313:1 324:2 333:1 381:3 387:2 389:1 508:1 582:1 624:1 646:1 716:1 806:1 816:1 831:1 872:1 935:1 989:1 1047:1 1297:1 1341:1 1355:1 1364:1 1385:1 1404:1 1458:1 1488:1 1574:1 1578:1 1681:1 1907:2 1999:1 2010:1 2086:1 2207:1 2234:1 2381:1 2400:1 2507:1 2583:1 2654:2 2696:1 2735:1 2755:2 2793:1 2820:1 2824:1 2833:1 2872:1 2923:2 2925:1 3011:1 3069:1 3254:1 3486:1 3552:1 3605:1 3731:1 3879:3 3888:2 3994:2 4038:1 4039:1 4120:1 4243:1 4279:1 4281:1 4448:1 4459:1 4534:1 4646:2 4661:1 4671:1 4740:1 4829:2 4970:4 4977:2 4999:1 5172:2 5201:2 5316:1 5367:1 5530:1 5607:1 5619:1 5627:1 5633:1 5734:1 5817:1 5824:1 5958:1 6192:2 6193:1 6219:1 6242:2 6246:1 6268:2 6296:1 6333:2 6398:1 6417:1 6436:2 6494:1 6557:2 6597:1 6694:1 6787:2 6820:1 6959:1 7075:1 7119:1 7132:1 7174:1 7221:1 7279:1 7313:1 7419:1 7422:1 7481:1 7506:1 7568:1 7621:1 7649:2 7720:1 7748:4 7754:1 7815:3 7874:1 
2.489864591550147 3.19430910194852 1.414801430405191 1.469631740915331 93:1 273:1 280:1 290:1 338:1 355:1 368:1 375:1 442:1 508:1 522:1 583:1 606:1 692:1 775:3 854:3 858:1 899:1 929:1 1010:1 1028:1 1079:1 1096:1 1247:1 1261:1 1302:1 1394:1 1395:2 1514:1 1561:1 1594:1 1631:1 1681:1 1707:1 1708:5 1715:2 1771:1 1821:1 1883:1 1907:1 1911:1 2026:1 2172:1 2181:1 2207:1 2231:1 2274:1 2374:6 2498:1 2521:1 2541:1 2561:1 2603:1 2613:1 2620:1 2628:1 2691:1 2720:1 2744:1 2786:1 2806:1 2916:1 2935:1 2944:1 3003:1 3009:1 3016:1 3042:1 3045:1 3238:3 3278:3 3358:1 3387:1 3409:1 3433:1 3476:1 3580:1 3662:1 3664:1 3705:1 3919:1 3949:1 3994:1 4088:1 4120:5 4130:1 4302:1 4411:1 4474:1 4501:1 4540:1 4549:1 4572:1 4576:3 4647:1 4737:1 4741:1 4811:1 4829:3 4956:1 4993:1 5042:1 5115:2 5116:1 5184:2 5218:1 5232:1 5412:2 5454:1 5510:1 5566:1 5681:1 5702:1 5720:1 5757:1 5844:1 6170:1 6181:3 6224:1 6249:1 6257:1 6283:1 6331:1 6333:1 6357:1 6384:1 6401:1 6402:1 6417:2 6498:1 6508:1 6578:1 6635:1 6656:1 6691:1 6729:1 6749:1 6760:1 6828:1 6839:1 6896:1 6906:1 6939:1 6940:1 6987:1 7026:1 7074:1 7158:1 7176:1 7213:1 7313:1 7402:1 7414:1 7481:1 7486:2 7639:2 7696:1 7702:4 7754:1 7785:1 7802:1 7815:3 
3.515663923217861 1.534080694795122 3.730003576538744 0.2026682907746431 46:1 53:1 133:1 139:1 210:1 283:1 332:1 369:1 457:1 469:2 492:1 496:2 550:1 551:6 557:6 564:1 573:2 612:1 619:1 646:1 683:1 704:1 729:1 740:1 747:1 808:1 855:1 882:1 885:1 901:1 940:1 952:1 989:2 1010:1 1146:1 1166:1 1264:1 1344:1 1406:1 1427:1 1469:1 1664:1 1693:1 1694:2 1728:1 1749:1 1838:1 1852:1 1886:4 1959:1 2081:6 2103:9 2143:1 2144:1 2145:1 2168:1 2342:1 2469:1 2496:1 2507:1 2541:1 2543:1 2680:4 2744:1 2787:1 2872:1 2914:1 2923:1 3045:3 3076:1 3094:1 3136:1 3161:1 3201:2 3226:2 3247:2 3263:1 3309:2 3314:1 3433:1 3447:1 3528:1 3583:1 3603:6 3645:1 3687:3 3705:1 3762:2 3806:2 3818:1 3884:2 3911:2 3992:1 3993:1 3998:3 4057:1 4066:1 4086:1 4119:1 4159:1 4199:1 4270:10 4316:2 4349:1 4365:1 4545:13 4576:1 4597:1 4661:2 4669:1 4671:1 4698:1 4699:1 4761:1 4811:1 4869:3 4915:1 5018:1 5032:1 5034:1 5115:2 5218:4 5231:1 5278:1 5287:1 5291:1 5367:1 5446:1 5492:1 5548:1 5559:1 5564:1 5649:1 5651:1 5686:1 5727:1 5750:1 5764:1 5859:1 5908:1 5920:1 5927:1 5954:2 5955:1 5976:1 5977:1 5981:1 6034:3 6123:1 6164:1 6192:1 6323:1 6333:1 6389:2 6397:1 6398:1 6507:1 6518:2 6526:1 6531:1 6544:1 6548:1 6607:1 6694:1 6712:1 6734:2 6825:1 6876:1 6924:2 6939:1 6942:1 6968:1 6976:1 6999:2 7044:1 7081:1 7094:1 7143:1 7179:1 7240:1 7313:3 7523:1 7536:1 7616:2 7754:3 7762:1 7787:1 7815:1 7869:2 
3.803038813876469 0 0.8462116606489504 0.1074184062868803 35:1 46:1 73:2 92:1 108:1 214:4 218:1 239:2 241:1 278:1 285:2 369:1 375:1 387:3 400:1 438:1 457:2 508:1 537:6 541:8 582:1 629:1 692:1 769:2 808:1 854:1 921:1 931:1 998:1 1010:1 1019:1 1048:2 1137:1 1146:1 1218:2 1222:1 1229:1 1247:7 1343:1 1364:1 1383:1 1384:1 1395:14 1406:1 1469:1 1491:1 1500:1 1609:1 1633:1 1652:1 1653:1 1659:2 1675:1 1707:5 1708:10 1735:1 1750:1 1757:1 1833:1 1852:1 1861:1 1907:1 1932:4 2001:1 2153:1 2178:3 2274:1 2302:2 2328:1 2352:1 2374:1 2376:1 2413:2 2434:1 2458:1 2476:1 2484:1 2490:2 2533:1 2534:1 2590:1 2620:1 2696:3 2738:1 2740:1 2741:1 2770:1 2813:1 2872:1 2890:1 2957:2 3022:2 3125:1 3134:1 3201:1 3242:1 3279:1 3310:1 3388:1 3433:1 3563:1 3567:1 3574:2 3622:1 3662:1 3664:1 3678:2 3687:1 3852:1 3884:1 3886:1 3927:1 3934:1 3998:3 4023:1 4032:1 4043:1 4065:2 4074:16 4086:1 4120:16 4148:1 4150:1 4154:1 4158:2 4182:4 4279:1 4342:1 4363:8 4411:1 4539:1 4545:8 4576:1 4597:1 4661:10 4671:2 4752:1 4805:1 4829:2 4841:1 4850:1 4851:2 5033:1 5039:2 5042:1 5056:1 5081:1 5122:1 5168:2 5170:1 5287:1 5332:1 5357:1 5366:1 5367:1 5384:1 5392:1 5395:3 5437:1 5576:1 5614:1 5619:1 5636:1 5638:1 5662:1 5692:1 5709:1 5780:1 5787:1 5789:1 5790:1 5839:1 5922:1 5941:2 6000:1 6034:10 6123:1 6166:3 6170:2 6187:2 6188:1 6192:1 6194:1 6468:1 6518:1 6540:1 6569:1 6581:1 6597:2 6635:1 6637:1 6652:1 6656:2 6660:1 6676:1 6735:1 6755:3 6758:1 6769:1 6775:1 6780:2 6795:1 6804:1 6826:3 6828:1 6856:1 6915:1 6939:1 6965:1 6970:1 7067:1 7081:2 7119:1 7197:1 7205:2 7233:1 7288:1 7313:3 7373:1 7543:1 7579:8 7603:2 7628:2 7648:1 7659:2 7708:1 7720:1 7738:3 7766:6 7792:1 7815:4 7867:1 7869:1 7882:6 
8.115645039093009 5.991461061996059 10.35755929573269 3.787108491513014 17:1 61:1 133:1 204:1 207:1 217:1 233:1 290:1 316:1 369:1 375:1 408:1 419:1 445:1 629:1 661:1 724:1 875:1 901:1 989:2 1005:1 1010:1 1036:1 1120:1 1153:3 1198:2 1274:1 1372:1 1418:1 1511:1 1566:2 1569:2 1579:2 1584:1 1648:1 1693:1 1740:1 1750:1 1886:2 1902:1 1907:1 2018:1 2036:2 2070:1 2109:4 2135:1 2136:2 2172:1 2180:1 2243:1 2279:1 2285:1 2298:1 2302:3 2366:1 2374:1 2379:1 2381:1 2400:1 2446:1 2497:3 2526:2 2558:2 2581:2 2588:1 2613:2 2641:1 2685:1 2696:1 2734:1 2839:4 2957:1 2990:1 2999:1 3009:1 3101:1 3114:1 3184:1 3186:1 3194:3 3244:1 3245:2 3255:1 3263:1 3291:1 3303:1 3332:1 3355:1 3370:1 3460:1 3553:1 3556:1 3602:3 3608:1 3609:1 3622:1 3625:1 3647:1 3714:1 3723:1 3731:1 3791:1 3800:6 3801:6 3812:4 3899:1 3925:1 3937:3 3947:1 3998:1 4010:1 4066:1 4076:1 4159:1 4192:1 4196:1 4214:1 4261:1 4340:1 4386:1 4456:1 4503:1 4539:1 4549:1 4578:1 4661:2 4686:1 4688:1 4696:2 4724:1 4820:1 4846:1 4865:1 4907:1 4967:1 5028:1 5034:2 5076:1 5120:1 5131:2 5218:1 5261:1 5267:2 5278:1 5286:1 5303:1 5326:2 5339:1 5378:1 5389:1 5394:2 5460:1 5472:1 5589:1 5607:1 5625:1 5632:2 5634:2 5732:1 5750:1 5824:1 5844:1 5910:1 5944:1 5955:1 6173:1 6323:1 6329:1 6351:1 6379:1 6499:1 6524:7 6531:1 6558:1 6656:2 6718:1 6725:1 6726:1 6793:1 6808:2 6817:2 6873:2 6939:1 6943:1 7033:1 7076:1 7094:1 7157:1 7279:1 7299:1 7407:1 7419:1 7659:1 7666:1 7720:1 7724:1 7762:1 7766:1 7769:1 7784:1 7792:1 7793:1 7795:1 7813:1 7821:1 7827:1 7850:1 7869:2 7877:2 7885:1 
12.52944808089921 9.314566645264112 14.75014477157316 0 29:1 37:1 209:1 214:1 246:1 381:2 387:1 388:6 441:1 564:1 598:1 729:1 905:1 1010:5 1048:1 1264:1 1297:1 1567:1 1598:1 1715:1 1856:1 1994:1 2141:2 2143:1 2183:1 2374:1 2490:1 2775:1 2820:1 3283:1 3416:1 3556:1 3591:1 3632:1 3935:1 4086:1 4130:1 4159:1 4243:1 4417:1 4539:1 4545:5 4549:1 4829:1 4947:1 4970:2 5108:1 5179:2 5184:3 5281:1 5426:1 5590:1 5624:1 5633:1 5692:1 5755:1 5843:1 5879:1 6158:1 6187:1 6251:1 6360:1 6437:1 6769:1 6778:1 6798:1 6820:1 6863:2 7043:1 7074:1 7119:1 7135:1 7157:1 7390:1 7540:1 7699:1 7736:1 7748:1 7793:1 7807:1 7815:1 
0.2845436535307439 0 2.775157162350408 0.4624895389429641 65:1 77:1 130:1 319:1 326:1 361:1 368:1 375:1 387:2 492:1 513:1 568:1 629:2 658:4 662:1 664:1 688:1 692:1 752:1 775:1 831:1 865:1 904:1 949:1 1010:1 1037:1 1079:1 1218:1 1247:1 1395:2 1412:1 1460:1 1479:1 1533:1 1574:2 1609:2 1638:1 1661:1 1664:1 1707:3 1708:3 1715:1 1930:1 1965:1 1994:1 2074:1 2181:1 2203:1 2374:1 2384:1 2433:1 2464:1 2534:1 2541:1 2596:1 2603:1 2606:2 2621:1 2645:1 2719:1 2819:1 2899:1 2900:1 2916:1 2938:1 3003:1 3033:1 3065:2 3075:1 3125:1 3201:1 3310:1 3417:3 3442:1 3567:1 3585:1 3602:1 3678:1 3705:1 3731:2 3753:1 3886:1 3955:2 3988:2 3998:1 4032:1 4120:4 4159:3 4243:2 4279:1 4297:1 4322:1 4417:1 4474:4 4501:1 4529:1 4538:1 4540:2 4545:1 4549:1 4637:1 4661:1 4743:1 4756:1 4803:1 4829:3 4837:1 4879:1 4925:1 4968:1 4982:1 5025:4 5027:1 5034:2 5115:3 5131:1 5184:2 5218:1 5229:1 5404:1 5430:1 5574:1 5718:1 5824:1 5938:2 5942:1 5958:1 6033:1 6086:2 6108:1 6139:1 6171:1 6187:1 6204:1 6246:1 6251:1 6257:2 6333:1 6351:1 6455:1 6498:1 6519:1 6520:1 6540:1 6566:1 6603:1 6607:1 6712:3 6721:1 6760:1 6763:1 6803:1 6856:1 7002:1 7049:3 7081:2 7139:1 7215:1 7313:1 7351:1 7601:1 7639:1 7648:1 7708:1 7736:1 7778:1 7789:1 7813:2 7815:4 7821:1 7882:1 
1.645800417135275 0.05089539322287699 1.824539760696645 0 54:1 64:3 65:1 69:1 80:1 93:1 115:1 144:1 185:3 207:1 313:1 327:1 338:1 353:1 356:1 387:1 492:1 508:1 570:1 625:1 639:1 692:1 738:1 828:1 872:1 903:1 960:1 998:1 999:1 1049:1 1137:1 1140:1 1153:1 1220:1 1296:1 1320:1 1323:1 1356:1 1364:1 1438:2 1449:1 1522:1 1580:1 1582:1 1627:1 1681:1 1687:1 1693:1 1761:1 1762:1 1783:1 1801:1 1809:1 1862:9 1875:1 1920:1 2049:1 2066:1 2071:1 2078:1 2080:2 2099:1 2106:1 2107:1 2184:1 2239:1 2264:1 2288:1 2302:1 2345:1 2359:1 2381:1 2407:1 2465:1 2469:2 2491:1 2509:1 2524:1 2526:1 2554:1 2578:1 2600:1 2613:3 2692:1 2719:1 2786:1 2800:1 2896:1 2907:1 2916:1 2923:1 2968:1 2986:1 3009:1 3034:1 3065:1 3092:1 3126:1 3161:1 3183:1 3190:1 3192:1 3274:1 3318:1 3370:1 3375:2 3399:1 3401:1 3412:1 3468:1 3549:1 3552:1 3687:1 3731:1 3784:1 3846:1 3884:1 3925:1 3975:1 3977:1 3988:2 3994:1 3998:1 4002:1 4010:1 4066:3 4086:1 4102:1 4103:3 4120:7 4130:1 4172:1 4173:1 4308:1 4309:1 4349:1 4359:1 4386:1 4426:1 4437:1 4456:1 4474:1 4545:2 4576:1 4579:1 4609:1 4659:1 4660:1 4661:1 4686:3 4737:1 4790:1 4803:1 4836:1 4844:1 4863:1 4869:1 4915:1 5026:1 5037:1 5042:1 5048:1 5056:1 5115:5 5144:1 5175:3 5215:1 5255:1 5274:1 5295:1 5303:1 5356:1 5421:2 5515:1 5629:1 5656:1 5691:1 5941:1 5946:1 5963:1 6000:1 6065:2 6082:1 6166:1 6170:2 6173:1 6217:1 6224:1 6234:1 6249:1 6276:1 6316:1 6323:1 6351:1 6387:2 6423:1 6439:2 6460:1 6494:1 6507:1 6520:1 6524:1 6531:1 6536:2 6544:2 6561:1 6694:1 6708:1 6747:1 6806:1 6870:1 6886:1 6900:1 6939:1 6987:1 7019:1 7100:1 7119:1 7133:1 7152:1 7157:1 7160:1 7175:1 7288:1 7442:1 7488:1 7520:1 7543:1 7586:6 7615:2 7639:1 7648:1 7649:2 7667:1 7742:1 7743:1 7748:1 7766:1 7768:1 7792:1 7797:1 7801:2 7841:1 7843:1 
0 0.7891230279304327 0 0 48:1 63:1 68:1 73:1 106:1 112:1 207:1 214:1 265:1 278:1 290:1 306:1 314:1 317:1 319:1 333:1 354:1 375:2 381:2 387:3 393:5 404:1 416:1 445:1 490:1 492:2 539:2 582:1 614:2 624:1 692:2 702:1 755:1 762:1 790:2 797:2 817:1 825:1 831:1 849:1 882:1 893:1 949:1 956:1 973:1 989:1 1038:1 1076:1 1083:2 1113:1 1120:1 1123:1 1194:1 1241:1 1246:1 1247:2 1254:1 1274:1 1296:1 1344:2 1345:1 1355:1 1412:1 1413:3 1424:2 1425:1 1469:1 1472:1 1488:1 1490:1 1500:1 1578:2 1587:1 1598:1 1609:4 1619:1 1659:1 1665:2 1683:1 1709:1 1715:1 1726:1 1740:3 1807:1 1832:1 1856:3 1858:1 1874:1 1907:2 1934:6 1982:2 1993:1 2021:1 2027:1 2033:1 2063:1 2066:1 2074:4 2082:1 2099:2 2124:6 2145:1 2162:1 2181:1 2218:1 2264:2 2324:1 2330:1 2345:1 2348:1 2381:1 2417:1 2418:3 2450:1 2454:1 2490:1 2500:1 2502:1 2525:1 2540:1 2554:3 2593:1 2600:1 2620:1 2621:1 2654:3 2662:1 2682:1 2719:1 2740:1 2744:1 2787:1 2872:1 2886:1 2888:1 2917:1 2923:3 2944:1 2986:3 2996:1 3004:1 3023:1 3063:1 3114:1 3134:1 3184:1 3186:1 3244:2 3245:1 3255:1 3303:1 3304:1 3324:2 3332:2 3362:1 3384:2 3387:2 3388:2 3433:2 3435:1 3517:1 3530:1 3531:1 3556:1 3580:1 3592:1 3609:1 3645:1 3674:1 3721:1 3731:1 3773:1 3796:1 3849:1 3879:3 3886:1 3927:2 3934:1 3955:1 3988:3 3994:1 3996:1 3998:1 4031:1 4040:1 4078:1 4087:1 4088:1 4120:1 4130:7 4148:1 4159:3 4172:1 4241:1 4243:2 4329:1 4356:1 4411:1 4458:1 4504:1 4505:1 4526:1 4541:1 4545:2 4549:1 4556:1 4565:1 4574:3 4628:1 4661:1 4740:1 4788:1 4795:1 4805:1 4829:1 4841:3 4867:1 4879:1 4951:2 4970:3 5015:1 5031:1 5063:1 5064:1 5095:1 5101:1 5116:1 5172:1 5184:1 5252:1 5281:1 5332:1 5338:1 5367:1 5368:1 5380:1 5408:1 5412:1 5413:1 5417:1 5421:1 5425:1 5431:1 5433:1 5550:1 5629:1 5664:1 5674:1 5687:1 5750:1 5844:1 5850:2 5912:1 5922:1 5927:1 6019:1 6056:2 6061:7 6105:1 6131:1 6146:1 6164:1 6193:1 6239:1 6246:1 6257:1 6264:1 6268:2 6269:1 6281:1 6294:1 6301:1 6333:5 6372:2 6376:1 6400:1 6405:4 6414:1 6416:3 6449:1 6455:1 6466:1 6485:1 6499:2 6622:1 6646:1 6661:2 6674:1 6684:1 6712:1 6730:1 6753:1 6780:1 6857:1 6863:1 6869:1 6873:1 6915:2 7002:2 7013:1 7026:1 7044:1 7054:1 7067:1 7076:2 7102:2 7119:2 7124:2 7132:1 7194:1 7197:1 7293:3 7313:1 7322:1 7417:2 7481:7 7493:1 7509:3 7512:1 7532:1 7560:3 7605:1 7621:1 7648:1 7649:1 7659:1 7675:1 7720:2 7754:1 7766:1 7792:1 7802:1 7815:1 7816:1 7821:1 7831:1 7862:1 7869:1 7882:1 
0 0 0 0.450849133247071 24:1 65:2 70:1 72:1 102:2 133:1 204:1 207:2 214:3 237:1 239:4 246:1 327:2 338:1 355:1 381:7 400:1 404:1 445:1 490:1 495:1 508:1 551:1 590:2 629:3 638:1 639:1 688:1 694:1 702:1 706:1 778:2 822:1 854:1 876:1 882:1 928:1 956:1 989:1 1010:3 1013:1 1050:1 1089:3 1107:1 1146:2 1154:2 1198:4 1215:1 1223:1 1228:2 1255:1 1263:1 1274:1 1276:1 1293:1 1387:1 1418:6 1424:1 1426:1 1461:1 1473:2 1485:1 1511:1 1514:1 1539:2 1547:1 1571:1 1609:1 1659:6 1665:2 1666:2 1693:1 1727:1 1735:1 1750:2 1762:1 1769:2 1773:1 1787:2 1821:2 1835:1 1880:1 1932:1 1974:1 1982:2 2033:1 2037:1 2041:2 2138:2 2141:1 2144:1 2149:1 2177:1 2181:1 2205:1 2207:1 2234:1 2239:1 2263:1 2366:1 2374:3 2378:1 2393:1 2400:1 2404:1 2418:15 2429:1 2438:1 2443:1 2448:1 2475:1 2497:1 2534:1 2541:2 2553:1 2587:1 2596:1 2600:1 2613:6 2621:1 2651:1 2668:1 2719:3 2744:3 2786:1 2806:2 2839:40 2872:3 2900:2 2923:1 2938:1 2957:2 2973:1 2980:1 2981:1 2982:1 3047:3 3048:1 3049:1 3101:1 3104:1 3125:1 3126:1 3192:1 3213:1 3245:2 3247:1 3250:1 3254:1 3263:1 3310:1 3318:1 3324:1 3326:1 3371:1 3395:1 3407:3 3433:3 3471:1 3534:1 3536:2 3547:1 3548:1 3553:1 3565:1 3567:1 3574:2 3582:1 3651:1 3652:2 3731:3 3784:1 3786:1 3826:1 3884:1 3886:1 3925:2 3927:1 3988:3 3998:2 4022:1 4023:1 4025:1 4031:1 4080:1 4123:1 4130:1 4151:2 4153:1 4159:2 4172:2 4237:1 4279:2 4282:1 4283:1 4329:2 4340:1 4377:2 4391:1 4411:1 4453:1 4455:1 4474:1 4496:1 4501:1 4545:2 4574:6 4579:1 4603:1 4611:1 4661:1 4698:1 4708:1 4719:2 4731:1 4740:1 4743:1 4752:6 4803:1 4806:1 4829:5 4841:1 4857:2 4867:1 4895:1 4970:2 5010:1 5025:1 5029:1 5053:1 5101:1 5116:1 5134:1 5215:2 5218:5 5229:1 5235:1 5240:1 5253:3 5367:3 5370:1 5391:1 5421:1 5462:1 5492:1 5510:2 5515:2 5537:2 5541:1 5552:3 5576:2 5607:2 5619:3 5628:1 5636:2 5648:2 5659:1 5660:1 5738:1 5790:3 5791:1 5805:1 5820:1 5836:1 5898:1 5927:2 5942:1 6033:1 6034:2 6066:1 6158:1 6187:1 6194:1 6203:1 6204:1 6206:1 6224:2 6323:1 6333:1 6465:4 6518:1 6520:1 6534:1 6580:1 6581:1 6605:1 6656:1 6660:1 6694:1 6715:2 6749:1 6755:1 6806:1 6808:1 6873:1 6922:3 6932:1 6939:2 6959:1 6987:1 7068:1 7074:1 7080:1 7081:1 7119:3 7139:1 7172:1 7197:2 7227:1 7232:1 7240:1 7258:1 7299:1 7322:2 7328:1 7373:1 7415:1 7417:1 7452:1 7467:1 7481:2 7495:1 7509:1 7560:17 7567:1 7584:1 7585:1 7628:1 7629:1 7639:1 7659:2 7676:1 7708:1 7766:4 7793:1 7802:1 7813:1 7832:1 7869:2 7877:3 7885:1 7888:1 
9.293184623366226 4.503378859898725 5.984566013461927 2.768762712825696 10:1 47:1 73:1 94:1 204:1 209:1 213:1 338:1 346:1 375:1 385:1 416:1 627:1 692:1 892:1 1002:3 1010:1 1116:1 1194:1 1263:1 1364:1 1374:1 1379:1 1500:2 1558:1 1561:1 1612:1 1665:1 1693:1 1943:1 1960:1 1977:1 1982:2 2080:1 2298:1 2306:1 2374:1 2378:1 2379:1 2418:2 2432:1 2443:1 2475:1 2500:1 2516:3 2559:1 2581:1 2590:1 2596:2 2613:3 2675:1 2793:1 3018:1 3045:1 3120:1 3205:4 3245:1 3247:1 3296:1 3358:1 3359:1 3369:1 3433:1 3556:1 3565:1 3614:1 3645:2 3683:1 3879:1 3884:1 3887:1 3925:1 3927:1 3938:1 3955:1 3998:2 4061:1 4069:1 4080:1 4088:1 4090:1 4120:3 4130:2 4148:1 4159:1 4181:1 4283:1 4301:1 4320:1 4322:2 4377:1 4415:1 4433:4 4496:1 4541:1 4545:1 4574:1 4659:1 4661:3 4671:1 4716:1 4737:1 4766:1 4783:1 4803:1 4829:1 4841:2 4857:1 4879:1 4943:1 5038:2 5215:2 5218:1 5240:1 5388:1 5472:1 5492:2 5601:1 5619:1 5624:1 5636:1 5667:1 5731:1 5734:2 5803:1 5808:1 5918:1 6033:2 6034:3 6035:1 6073:1 6086:3 6089:1 6160:1 6192:1 6194:1 6246:2 6300:1 6309:7 6321:1 6333:2 6392:3 6400:1 6652:2 6656:1 6694:1 6712:1 6734:2 6753:1 6759:1 6766:1 6795:1 6832:4 6877:2 6922:1 6957:1 7001:1 7010:1 7119:2 7120:1 7131:9 7157:1 7179:1 7216:2 7269:1 7322:1 7538:1 7555:1 7576:1 7603:1 7631:1 7639:1 7648:1 7681:1 7696:1 7701:1 7705:1 7708:1 7720:4 7766:4 7803:1 7814:1 7825:1 7882:1 
